
\data\
ngram 1=3046
ngram 2=14912
ngram 3=4674

\1-grams:
-4.510089	'CAUSE	-0.3197706
-3.468696	++BREATHING++	-0.493074
-3.811119	++GARBAGE++	-0.298757
-2.941887	++LAUGHTER++	-0.579428
-4.209059	++breathing++	-0.2932664
-4.032968	++garbage++	-0.2871355
-3.510089	++laughter++	-0.3060495
-1.081954	</s>
-99	<s>	-0.6641665
-1.944241	A	-0.4617242
-4.510089	ABLE	-0.325801
-2.623598	ABOUT	-0.5322673
-3.606999	ABOVE	-0.9527371
-4.209059	ABSOLUTELY	-0.2944238
-4.510089	ACCEPTANCE	-0.3319368
-3.731938	ACCIDENT	-0.3136721
-4.510089	ACCOUNT	-0.3318831
-4.510089	ACID	-0.3297438
-4.032968	ACT	-0.4209928
-4.510089	ACTED	-0.3263995
-4.032968	ACTING	-0.3289878
-3.468696	ACTUALLY	-0.2883187
-4.510089	ACTUALLY'CAUSE	-0.3197706
-4.209059	ADDER	-0.3420407
-4.510089	ADDERS	-0.3297708
-4.510089	ADDRESS	-0.3263995
-4.510089	ADDRESSED	-0.331977
-4.510089	ADMIT	-0.33066
-4.510089	ADVISING	-0.3197706
-4.510089	AFFORD	-0.325801
-4.510089	AFRAID	-0.3319234
-3.333998	AFTER	-0.3725154
-3.047691	AGAIN	-0.456965
-4.510089	AGGRESSIVE	-0.331977
-3.731938	AGO	-0.5905973
-3.908029	AH	-0.2805544
-3.908029	AHEAD	-0.3918682
-4.209059	AHH	-0.3297033
-3.908029	AIR	-0.3142323
-4.032968	AIRLINE	-0.3860394
-4.510089	AIRLINE'S	-0.331977
-4.209059	AIRPLANE	-0.3275803
-4.510089	AIRPORT	-0.3197706
-4.209059	ALIVE	-0.3133331
-2.460871	ALL	-0.4705237
-4.510089	ALLOW	-0.3313862
-4.032968	ALLURE	-0.4182032
-4.032968	ALMOST	-0.4226096
-3.811119	ALONE	-0.3172607
-4.510089	ALONG	-0.3263995
-3.908029	ALREADY	-0.3539907
-3.468696	ALRIGHT	-0.2769595
-4.209059	ALSO	-0.3301886
-4.510089	ALTHOUGH	-0.3316817
-3.148361	ALWAYS	-0.316918
-2.966021	AM	-0.3371019
-3.664991	AMANDA	-0.3593584
-3.811119	AMAZING	-0.297516
-4.209059	AMBIGUOUS	-0.2811129
-4.510089	AMOUNT	-0.3287175
-3.811119	AMUSING	-0.7243786
-4.510089	AMY	-0.3303099
-3.231335	AN	-0.3685325
-1.893089	AND	-0.484116
-4.510089	ANGRY	-0.3313593
-4.510089	ANIMALS	-0.3308887
-4.209059	ANN	-0.3170987
-4.510089	ANNA	-0.3319099
-3.18787	ANNIE	-0.5338311
-4.510089	ANNIE'S	-0.3297438
-3.731938	ANOTHER	-0.3617585
-4.032968	ANSWER	-0.2927234
-3.148361	ANY	-0.2719567
-4.032968	ANYBODY	-0.3193977
-3.731938	ANYHOW	-0.3515786
-4.209059	ANYMORE	-0.2942482
-4.209059	ANYONE	-0.3255559
-3.231335	ANYTHING	-0.2875508
-4.510089	ANYWAYS	-0.3319636
-4.209059	ANYWHERE	-0.2810374
-4.510089	APARTMENT	-0.3277836
-4.510089	APPARENTLY	-0.3314131
-4.209059	APPLIED	-0.3295819
-4.209059	APPLIES	-0.3733886
-4.510089	APPRECIATE	-0.2944531
-2.58581	ARE	-0.4635934
-4.209059	AREN'T	-0.3274583
-4.209059	ARGUE	-0.3304042
-4.510089	ARGUING	-0.3297438
-4.032968	ARM	-0.323392
-4.510089	ARMS	-0.3292985
-3.18787	AROUND	-0.3530609
-4.510089	ARRIVE	-0.2944531
-4.510089	ARRIVING	-0.3316817
-2.67758	AS	-0.5359297
-3.908029	ASHAMED	-0.3114368
-3.062931	ASK	-0.623904
-3.664991	ASKED	-0.3366932
-4.209059	ASKING	-0.2942921
-2.684014	AT	-0.5446929
-4.032968	ATLANTA	-0.3121763
-4.510089	ATTENDANCE	-0.329973
-4.510089	ATTITUDE	-0.3307811
-4.209059	AUDIENCE	-0.3071258
-3.363961	AUGIE	-0.2953283
-4.510089	AVERAGE	-0.3311577
-4.209059	AVOID	-0.3770481
-4.032968	AW	-0.3295549
-3.148361	AWAY	-0.303829
-3.908029	AWESOME	-0.2922972
-4.510089	AWFUL	-0.331977
-4.032968	AWHILE	-0.3188394
-3.811119	BABE	-0.2833438
-4.510089	BABIES	-0.3317354
-4.032968	BABY	-0.2884428
-2.876621	BACK	-0.3281933
-4.032968	BACKERSEN	-0.3254896
-3.606999	BAD	-0.286392
-3.811119	BAG	-0.3648309
-3.908029	BALTIMORE	-0.2748067
-4.209059	BANK	-0.3319636
-4.209059	BAREFOOT	-0.3773314
-4.032968	BARK	-0.3564087
-4.510089	BARRYMORE	-0.3299596
-4.510089	BATHROOM	-0.33066
-4.510089	BATTLING	-0.3318563
-2.472662	BE	-0.3807432
-3.430908	BEACH	-0.3296375
-3.468696	BEAST	-0.3441654
-4.510089	BEATING	-0.3317086
-3.908029	BEAUTIFUL	-0.3016527
-4.032968	BEAUTIFULLY	-0.3860394
-2.876621	BECAUSE	-0.4648566
-4.209059	BECOME	-0.3746119
-4.510089	BED	-0.2944531
-2.991575	BEEN	-0.3016846
-4.510089	BEER	-0.331977
-3.209059	BEFORE	-0.2802057
-4.510089	BEGIN	-0.33066
-4.032968	BEGINNING	-0.4173873
-4.032968	BEHAVE	-0.4235365
-3.811119	BEHIND	-0.3259507
-4.510089	BEIGE	-0.329447
-3.27964	BEING	-0.3692883
-3.148361	BELIEVE	-0.4159192
-4.209059	BELIEVING	-0.3420407
-4.209059	BENDED	-0.3795512
-4.510089	BESIDES	-0.330283
-3.731938	BEST	-0.2954972
-3.305969	BETTER	-0.290134
-4.510089	BICKER	-0.3263995
-3.555846	BIG	-0.3352262
-4.510089	BILL	-0.330956
-4.209059	BILLS	-0.3307676
-4.510089	BIRTHDAY	-0.3318697
-3.510089	BIT	-0.3884628
-4.032968	BITING	-0.3549208
-3.606999	BLANKET	-0.3363454
-3.731938	BLOOD	-0.3365627
-3.811119	BLOW	-0.3844751
-4.209059	BLUE	-0.292003
-4.510089	BLUSH	-0.3263995
-4.510089	BOARDING	-0.331977
-4.510089	BOATS	-0.3313593
-4.032968	BODIES	-0.3194927
-4.032968	BODY	-0.3614219
-4.510089	BOOK	-0.3319636
-4.510089	BOOKS	-0.3316951
-4.032968	BOORISH	-0.4179858
-4.032968	BORED	-0.361772
-4.209059	BOSTON	-0.3250517
-3.731938	BOTH	-0.3696061
-4.209059	BOTTLE	-0.3763052
-4.510089	BOUGHT	-0.3319502
-4.510089	BOUND	-0.325801
-3.664991	BOY	-0.3139695
-4.209059	BRAIN	-0.3319502
-4.032968	BRAND	-0.4231874
-3.468696	BRANDY	-0.8837641
-4.510089	BREAD	-0.3263995
-4.209059	BREAKS	-0.3773314
-4.510089	BRENDA	-0.331977
-3.908029	BRENT	-0.3987532
-4.510089	BRIAN	-0.3197016
-4.510089	BRIDE	-0.2944531
-3.606999	BRING	-0.346884
-4.510089	BRINGING	-0.3316011
-4.209059	BRINGS	-0.3303907
-4.510089	BRISTLING	-0.33066
-4.510089	BROACH	-0.2944531
-4.032968	BROKE	-0.3254603
-4.510089	BROOCH	-0.2944531
-3.664991	BROTHER	-0.3263976
-3.363961	BROUGHT	-0.3394554
-4.209059	BROWN	-0.2941457
-4.510089	BRUISING	-0.3197706
-3.811119	BRUTE	-0.3126478
-4.209059	BUCKS	-0.3268885
-4.032968	BUILD	-0.3577693
-4.510089	BUILT	-0.329393
-3.908029	BULLY	-0.3551755
-4.032968	BUMPS	-0.2878936
-4.209059	BUNCH	-0.3763052
-4.510089	BUNKER	-0.3263995
-3.606999	BURDEN	-0.5484801
-4.510089	BURNT	-0.3270243
-4.510089	BURST	-0.3297438
-3.664991	BUS	-0.3628702
-4.510089	BUSH	-0.2944531
-3.078725	BUSINESS	-0.4842745
-4.510089	BUSY	-0.2944531
-2.514454	BUT	-0.4753696
-4.510089	BUY	-0.3313459
-3.664991	BY	-0.3191572
-3.908029	C	-0.317307
-4.032968	CAD	-0.3255627
-3.811119	CALIFORNIA	-0.3422303
-3.468696	CALL	-0.292408
-4.032968	CALLED	-0.3605453
-3.731938	CALLING	-0.3896912
-3.908029	CALLS	-0.2862121
-3.664991	CALM	-0.4052565
-2.941887	CAME	-0.6249078
-4.209059	CAMERA	-0.3793231
-4.510089	CAMERAS	-0.3292985
-2.555846	CAN	-0.4668145
-2.828848	CAN'T	-0.405699
-4.032968	CANCER	-0.313207
-4.510089	CANDID	-0.331977
-4.209059	CANDY	-0.3255014
-4.209059	CANNES	-0.3794439
-4.209059	CANNOT	-0.3785706
-4.209059	CAPISTRANO	-0.378947
-4.510089	CAPTION	-0.2944531
-3.510089	CAR	-0.301503
-3.811119	CARD	-0.3146479
-4.209059	CARDS	-0.3284064
-3.254817	CARE	-0.3398269
-3.908029	CARLA	-0.3028954
-4.510089	CARPET	-0.3270243
-4.032968	CARRY	-0.3298112
-4.510089	CASH	-0.2944531
-4.510089	CAST	-0.3319234
-4.510089	CAT	-0.3319368
-4.510089	CATCH	-0.3197706
-3.555846	CAUSE	-0.3096237
-4.032968	CELEBRATION	-0.4203038
-4.510089	CEMETERIES	-0.3270243
-4.510089	CEMETERY	-0.2944531
-4.510089	CENTER	-0.3287175
-4.510089	CENTERED	-0.3311846
-4.510089	CERTAINLY	-0.3197706
-4.510089	CHAIR	-0.2944531
-4.209059	CHALLENGE	-0.3787857
-3.555846	CHAMPAGNE	-0.4752932
-4.209059	CHANGE	-0.3273227
-3.908029	CHANGED	-0.3935284
-4.510089	CHARGE	-0.3316817
-4.510089	CHARGING	-0.3197706
-3.811119	CHARLES	-0.3998888
-4.032968	CHEAP	-0.3630756
-3.811119	CHECK	-0.344373
-4.209059	CHECKBOOK	-0.2877005
-4.510089	CHECKED	-0.3297438
-4.510089	CHEEKS	-0.3263995
-4.032968	CHEESE	-0.3255334
-4.510089	CHEESY	-0.3317757
-3.305969	CHILD	-1.017513
-3.908029	CHILDREN	-0.3167021
-4.209059	CHOICE	-0.2943653
-4.510089	CHOSE	-0.325801
-3.333998	CHRIS	-0.2886005
-3.908029	CHUCK	-0.3974226
-4.510089	CITIZENSHIP	-0.2944531
-3.908029	CITY	-0.3157041
-4.209059	CLAPPING	-0.3739871
-4.209059	CLASPED	-0.3317354
-4.510089	CLAUS	-0.2944531
-4.510089	CLEARLY	-0.3197706
-4.510089	CLERK	-0.2944531
-4.209059	CLIFFS	-0.3193149
-4.510089	CLOCK	-0.329393
-4.209059	CLOSE	-0.3316011
-4.510089	CLOTHES	-0.2944531
-4.510089	CO	-0.331977
-3.664991	COAST	-0.5478598
-3.811119	COLD	-0.3293378
-4.510089	COLLEGE	-0.331977
-4.510089	COLORS	-0.3308619
-3.018727	COME	-0.4392868
-3.664991	COMES	-0.3639358
-3.430908	COMING	-0.5238367
-3.908029	COMMAND	-0.3894399
-4.510089	COMMERCIALS	-0.3263995
-4.510089	COMMUTE	-0.3197706
-4.209059	COMMUTING	-0.3306465
-3.908029	COMPANY	-0.3551755
-4.510089	COMPENSATING	-0.3197706
-4.510089	COMPLETELY	-0.3300674
-4.510089	COMPLICATED	-0.33066
-4.510089	COMPUTER	-0.3197016
-4.032968	CONCEITED	-0.3562724
-4.510089	CONFUSED	-0.33066
-4.510089	CONGRATULATIONS	-0.3316011
-4.510089	CONNECT	-0.3197706
-4.209059	CONSIDERATE	-0.3319636
-4.510089	CONSIDERING	-0.3197706
-4.032968	CONTACT	-0.3508542
-3.908029	CONTRACT	-0.323262
-4.510089	CONTRACTS	-0.3297438
-4.510089	CONTRADICT	-0.3313862
-4.032968	CONTRARY	-0.4186105
-3.908029	CONTROL	-0.3171124
-3.811119	CONVERSATION	-0.3033571
-4.032968	COOL	-0.3251968
-4.510089	COOPERATE	-0.33066
-4.510089	COST	-0.3319099
-3.032968	COULD	-0.2943044
-4.510089	COULD'VE	-0.331977
-3.811119	COULDN'T	-0.3482794
-4.510089	COUNT	-0.3312653
-4.209059	COUPLE	-0.3318696
-3.606999	COURSE	-0.3341313
-4.209059	COURT	-0.3302964
-3.908029	CRACK	-0.3871219
-4.032968	CRACKED	-0.3241412
-4.209059	CRACKER	-0.3792962
-4.510089	CRAIG'S	-0.331977
-3.908029	CRAWLING	-0.3920318
-3.731938	CRAZY	-0.3344291
-4.209059	CREAM	-0.3746119
-4.209059	CREATED	-0.2890357
-3.606999	CRIED	-0.3720618
-4.510089	CROWN	-0.331977
-3.908029	CRUEL	-0.3538293
-4.510089	CRUISE	-0.2944531
-4.510089	CRUISING	-0.3297438
-4.510089	CRYING	-0.3318563
-4.510089	CURLING	-0.331977
-4.510089	CURLY	-0.331977
-4.510089	CURTSEY	-0.2944531
-4.510089	CURTSY	-0.2944531
-4.209059	CUSTOMER	-0.2943946
-4.510089	CUTTING	-0.3294605
-4.209059	D	-0.3314802
-3.468696	DAD	-0.335954
-4.510089	DAD'S	-0.3300674
-4.209059	DADDY	-0.3263451
-4.510089	DAMMIT	-0.3297708
-3.811119	DAMN	-0.3274041
-4.510089	DAMNED	-0.3319636
-4.510089	DANCE	-0.2944531
-4.510089	DANCED	-0.3319636
-4.510089	DANCING	-0.3319636
-4.032968	DARE	-0.3200879
-4.510089	DARES	-0.3316817
-4.510089	DARKEST	-0.3319636
-3.555846	DARLING	-0.3390636
-4.510089	DARN	-0.331977
-4.510089	DAUGHTER	-0.3308619
-3.254817	DAY	-0.3206414
-3.731938	DAYS	-0.3476853
-4.209059	DEAD	-0.2883538
-3.908029	DEAL	-0.3168634
-3.510089	DEAR	-0.3355849
-3.908029	DEATH	-0.3143207
-4.209059	DEBATE	-0.3785436
-4.510089	DECISION	-0.330283
-4.510089	DEDUCTION	-0.2944531
-4.209059	DEFINITELY	-0.3298382
-4.510089	DELIGHT	-0.3287175
-4.209059	DELTA	-0.2940286
-4.209059	DEMAND	-0.2939993
-4.510089	DENIGRATE	-0.329447
-4.510089	DESERVES	-0.327621
-4.032968	DESTROYED	-0.3176261
-4.209059	DETAILS	-0.3305254
-4.209059	DETROIT	-0.3313056
-4.510089	DEVIL	-0.3314399
-4.510089	DIAMONDS	-0.3297438
-2.876621	DID	-0.5859854
-2.837991	DIDN'T	-0.4083663
-3.430908	DIE	-0.3376215
-3.731938	DIED	-0.3368842
-4.032968	DIEGO	-0.2943946
-4.510089	DIEM	-0.2944531
-4.510089	DIES	-0.2944531
-4.032968	DIFFERENCE	-0.4173873
-4.032968	DIFFERENT	-0.3310905
-4.510089	DIFFERENTLY	-0.2944531
-4.510089	DIGITS	-0.3287175
-4.209059	DINNER	-0.3775202
-4.032968	DIRECT	-0.3618796
-4.510089	DIRECTION	-0.2944531
-4.510089	DIRTY	-0.3294605
-4.209059	DISAGREEABLE	-0.3420407
-4.510089	DISEASE	-0.2944531
-4.209059	DISHES	-0.3775202
-4.209059	DISHONEST	-0.2930023
-4.510089	DISTINCTLY	-0.3197706
-4.032968	DIVORCE	-0.3860394
-2.289981	DO	-0.7523245
-3.468696	DOES	-0.3708808
-3.811119	DOESN'T	-0.3498541
-3.430908	DOING	-0.3094373
-4.510089	DOLLAR	-0.3270243
-3.664991	DOLLARS	-0.3274336
-2.292605	DON'T	-0.6410482
-3.664991	DONE	-0.3097041
-4.510089	DONUTS	-0.3297438
-4.510089	DOOR	-0.325801
-4.510089	DORM	-0.33066
-3.27964	DOWN	-0.2997665
-4.032968	DOWNSTAIRS	-0.3246107
-4.209059	DOWNTOWN	-0.2926205
-4.032968	DREADFULLY	-0.3157218
-4.209059	DREAM	-0.3278107
-4.209059	DREAMING	-0.3276752
-4.510089	DRESSING	-0.331977
-4.510089	DREW	-0.331977
-4.510089	DRINK	-0.3266169
-4.510089	DRINKING	-0.3308887
-3.606999	DRIVE	-0.3521529
-4.510089	DRIVES	-0.3314937
-3.664991	DRIVING	-0.3790985
-4.032968	DROP	-0.3137392
-4.209059	DROPPED	-0.3297168
-3.333998	DRUNK	-0.8175921
-3.908029	DRY	-0.3926592
-4.510089	DUAL	-0.331977
-4.510089	DUDE	-0.3197706
-4.510089	DUNN	-0.3298922
-3.908029	DURING	-0.3404216
-4.209059	DUTY	-0.3733886
-3.908029	E	-0.3987398
-3.606999	EACH	-0.6755751
-4.209059	EAR	-0.3778976
-3.908029	EARTH	-0.3471566
-4.510089	EASY	-0.3307811
-4.510089	EAT	-0.3266169
-4.510089	ED	-0.3319234
-4.510089	EDUCATED	-0.2944531
-4.209059	EGGS	-0.378947
-3.908029	EIGHT	-0.3494331
-4.032968	EITHER	-0.3242293
-4.510089	ELECTRICAL	-0.3319636
-4.510089	ELLIOTT	-0.3319368
-3.18787	ELSE	-0.4044959
-3.908029	EMBARRASSED	-0.3952905
-4.209059	EMBARRASSING	-0.3673582
-4.510089	EMERGENCY	-0.327621
-3.555846	END	-0.3832609
-4.510089	ENGAGEMENT	-0.3318697
-3.811119	ENJOY	-0.3403873
-4.209059	ENJOYABLE	-0.3184021
-4.510089	ENJOYS	-0.3319636
-3.606999	ENOUGH	-0.3159152
-3.731938	ENTIRE	-0.3623638
-4.510089	ENVELOPE	-0.327621
-4.510089	ENVIRONMENT	-0.329973
-4.209059	ES	-0.3795512
-4.510089	ESCORT	-0.3319636
-4.032968	ESPECIALLY	-0.318665
-4.510089	EUROPE	-0.2944531
-3.305969	EVEN	-0.3198532
-3.606999	EVENING	-0.3056771
-4.510089	EVENT	-0.3277836
-4.510089	EVENTUALLY	-0.2944531
-3.254817	EVER	-0.3821233
-3.468696	EVERY	-0.5121403
-4.209059	EVERYBODY	-0.3317757
-4.510089	EVERYDAY	-0.3318428
-3.811119	EVERYONE	-0.3148573
-4.510089	EVERYONE'S	-0.3319636
-3.167666	EVERYTHING	-0.2829557
-4.510089	EVERYTHING'S	-0.3316683
-3.811119	EVIL	-0.3797628
-3.811119	EXACTLY	-0.2695555
-4.209059	EXCEPT	-0.3753713
-3.468696	EXCITED	-0.2916519
-4.209059	EXCITING	-0.3673582
-4.209059	EXCUSE	-0.3272006
-3.731938	EXPECT	-0.3666043
-4.510089	EXPECTANTLY	-0.3317488
-4.510089	EXPECTED	-0.327621
-4.510089	EXPENSIVE	-0.2944531
-4.510089	EXPLANATION	-0.3197706
-4.032968	EXQUISITELY	-0.3860394
-4.510089	EXTREMELY	-0.331977
-4.032968	EYE	-0.4235365
-4.209059	EYES	-0.3307004
-3.908029	FACE	-0.3156012
-3.811119	FACT	-0.31908
-3.908029	FAITH	-0.3163899
-4.209059	FAITHFUL	-0.3786647
-4.209059	FAKE	-0.3319636
-4.510089	FALL	-0.3308887
-3.811119	FAMILY	-0.3696764
-4.209059	FANGS	-0.3739871
-3.811119	FAR	-0.3682904
-4.510089	FASCINATING	-0.3297438
-4.510089	FAST	-0.3304581
-4.510089	FAT	-0.3319636
-3.555846	FATHER	-0.3478219
-4.510089	FATHER'S	-0.3318294
-4.510089	FAULT	-0.3197016
-4.510089	FAX	-0.327621
-3.167666	FEEL	-0.4473561
-4.510089	FEELING	-0.2944531
-4.510089	FEELS	-0.3317354
-4.510089	FEET	-0.331977
-4.510089	FELLA	-0.3263995
-4.510089	FELLOW	-0.3315474
-3.430908	FELT	-0.3699045
-4.510089	FEW	-0.3319502
-4.510089	FIELD	-0.3308619
-4.209059	FIEND	-0.313949
-4.510089	FIFTEEN	-0.331977
-3.811119	FIFTY	-0.3844482
-4.209059	FIGHT	-0.2883538
-4.032968	FIGHTING	-0.3241412
-4.209059	FIGURE	-0.3784764
-4.032968	FIGURED	-0.3576335
-4.209059	FIGURES	-0.3763052
-4.510089	FILL	-0.3308887
-4.510089	FILLED	-0.3308887
-3.555846	FINALLY	-0.3293085
-3.606999	FIND	-0.3538614
-3.555846	FINE	-0.3229082
-4.510089	FINISH	-0.3266169
-4.510089	FINISHED	-0.3266169
-4.032968	FIRE	-0.3625251
-4.510089	FIRECRACKER	-0.3317086
-4.510089	FIRING	-0.3303099
-3.363961	FIRST	-0.3267896
-3.095116	FISH	-0.3118686
-3.811119	FIT	-0.3100198
-3.731938	FIVE	-0.3350185
-3.254817	FLASHLIGHT	-0.3984685
-4.510089	FLAT	-0.3308887
-4.209059	FLEW	-0.3773314
-3.510089	FLIGHT	-0.2795162
-4.209059	FLIGHTS	-0.3792694
-4.510089	FLIPPANCY	-0.3319636
-3.731938	FLOOR	-0.3001885
-4.510089	FLOORBOARDS	-0.3297438
-4.209059	FLOP	-0.3792962
-4.209059	FLOPPING	-0.3792962
-3.731938	FLY	-0.3707491
-4.510089	FOAM	-0.331977
-4.510089	FOLLOW	-0.3315474
-4.510089	FOOLISH	-0.33066
-4.510089	FOOTSTEPS	-0.3197706
-2.287373	FOR	-0.4015871
-4.510089	FORCE	-0.3197706
-3.811119	FOREVER	-0.3341104
-4.032968	FORGET	-0.3251199
-3.908029	FORGIVE	-0.380493
-3.606999	FORGOT	-0.2849288
-4.032968	FORGOTTEN	-0.4229725
-4.032968	FORM	-0.3182913
-4.032968	FORMED	-0.3555357
-3.606999	FORTUNE	-0.355747
-4.032968	FORTY	-0.4235097
-3.731938	FOUND	-0.3299085
-3.363961	FOUR	-0.343315
-4.510089	FOURTEEN	-0.2944531
-4.209059	FREAKING	-0.3308484
-3.363961	FREE	-0.2891212
-4.510089	FRESH	-0.3297438
-4.209059	FRIEND	-0.3196877
-3.908029	FRIENDS	-0.3266169
-3.004939	FROM	-0.3416702
-4.510089	FRONT	-0.331977
-4.510089	FRUSTRATED	-0.2944531
-3.811119	FULL	-0.3659556
-3.908029	FUN	-0.3159391
-4.209059	FUNERAL	-0.3795378
-3.908029	FUNNY	-0.3425815
-4.032968	FURTHER	-0.4225557
-4.510089	FUSE	-0.2944531
-4.510089	FUTURE	-0.2944531
-4.510089	GAME	-0.3318965
-4.209059	GARAGE	-0.2883538
-4.510089	GARDEN	-0.331977
-3.664991	GAVE	-0.5691735
-3.908029	GEEZ	-0.3551755
-4.510089	GEORGIA	-0.2944531
-2.635028	GET	-0.4886174
-4.510089	GETS	-0.3317757
-3.606999	GETTING	-0.3323315
-4.510089	GIANT	-0.3314803
-4.209059	GIFT	-0.3307138
-4.510089	GIFTED	-0.2944531
-3.396146	GIRL	-0.3129163
-4.209059	GIRLFRIEND	-0.3274854
-3.032968	GIVE	-0.9269671
-4.209059	GIVEN	-0.3273092
-3.811119	GIVING	-0.3796151
-4.032968	GLASS	-0.4203038
-3.510089	GLASSES	-0.4594042
-4.510089	GLOW	-0.3197706
-2.754214	GO	-0.3777436
-2.941887	GOD	-0.4909138
-4.510089	GOD'S	-0.331977
-4.209059	GODDAMN	-0.3275939
-3.908029	GOES	-0.3463495
-2.493056	GOING	-1.024105
-3.811119	GONE	-0.311754
-3.047691	GOOD	-0.3057749
-4.510089	GOODBYE	-0.2944531
-4.510089	GOODIES	-0.3319099
-4.032968	GOOSE	-0.4235365
-4.510089	GOOSEBUMPS	-0.3313593
-4.209059	GOSH	-0.3170293
-2.652756	GOT	-0.5518454
-4.510089	GOTTEN	-0.331722
-4.510089	GOWN	-0.2944531
-4.032968	GRAND	-0.3605183
-4.209059	GRANTED	-0.3273905
-4.510089	GRANTS	-0.3263995
-4.510089	GRAVE	-0.3263995
-3.254817	GREAT	-0.3643494
-4.032968	GREEN	-0.3552625
-4.209059	GREW	-0.3785571
-4.510089	GROUND	-0.3263995
-4.032968	GROW	-0.3178757
-4.510089	GROWING	-0.3308619
-4.032968	GRUB	-0.4213301
-3.811119	GRUNIONS	-0.366671
-3.062931	GUESS	-0.4275616
-4.510089	GUILTY	-0.3197706
-4.032968	GUY	-0.3860394
-3.430908	GUYS	-0.3989061
-4.510089	H	-0.3319636
-4.510089	HA	-0.3312922
-4.209059	HABIT	-0.3782476
-2.802519	HAD	-0.33781
-4.510089	HADN'T	-0.3317757
-4.209059	HAIR	-0.3739871
-3.811119	HAIRS	-0.3774616
-3.811119	HALF	-0.3820389
-4.510089	HAND	-0.3315877
-4.510089	HANDLE	-0.2944531
-3.908029	HANDS	-0.3739599
-4.510089	HANDSOME	-0.3303099
-4.510089	HANG	-0.3297438
-4.510089	HANGING	-0.3297438
-3.396146	HAPPEN	-0.2822792
-3.396146	HAPPENED	-0.3947574
-4.510089	HAPPENING	-0.2944531
-3.908029	HAPPENS	-0.291694
-3.27964	HAPPY	-0.6330112
-3.664991	HARD	-0.3143129
-4.209059	HARDLY	-0.3296494
-4.510089	HARM	-0.3313862
-3.430908	HAS	-0.2971035
-3.305969	HATE	-0.8682636
-4.510089	HATS	-0.2944531
-2.36087	HAVE	-0.4681966
-3.664991	HAVEN'T	-0.3819066
-4.032968	HAVING	-0.3179588
-2.514454	HE	-0.4924554
-4.510089	HE'D	-0.3319502
-3.27964	HE'S	-0.3395784
-3.811119	HEAD	-0.3375667
-4.209059	HEADING	-0.3769806
-4.032968	HEADSTONE	-0.3087709
-3.333998	HEAR	-0.3341472
-3.811119	HEARD	-0.3738576
-4.510089	HEATHER	-0.3317086
-3.396146	HELL	-0.4879393
-4.032968	HELL'S	-0.3563406
-3.908029	HELLO	-0.2776444
-3.18787	HELP	-0.5359213
-4.510089	HELPING	-0.3294605
-4.510089	HELPS	-0.3270243
-2.739237	HER	-0.3557647
-2.565606	HERE	-0.4940027
-4.510089	HERS	-0.327621
-4.209059	HERSELF	-0.2890357
-3.430908	HEY	-0.3303818
-4.032968	HIDE	-0.2913552
-4.209059	HIGH	-0.3263315
-4.209059	HIGHLIGHT	-0.323303
-2.856877	HIM	-0.4733865
-4.209059	HIRE	-0.3317354
-4.510089	HIRING	-0.3318294
-2.991575	HIS	-0.3900295
-4.209059	HIT	-0.3171681
-4.510089	HITTING	-0.3319234
-3.908029	HMM	-0.3411982
-3.908029	HMMM	-0.287195
-4.510089	HOLDING	-0.3311981
-4.032968	HOLE	-0.3586243
-3.908029	HOLIDAY	-0.3926592
-4.510089	HOLMES	-0.3314937
-3.664991	HOME	-0.2984863
-4.510089	HONESTLY	-0.2944531
-3.811119	HONEY	-0.2942452
-4.510089	HONEYMOON	-0.331977
-4.209059	HOOK	-0.3673582
-4.032968	HOOPS	-0.3860394
-3.363961	HOPE	-0.411662
-4.510089	HOPEFULLY	-0.327621
-4.510089	HORRIBLE	-0.3197706
-4.510089	HOSTILE	-0.3197706
-4.510089	HOT	-0.2944531
-3.811119	HOTEL	-0.3695537
-4.032968	HOUR	-0.3570487
-3.908029	HOURS	-0.3174638
-3.555846	HOUSE	-0.3751608
-4.510089	HOUSES	-0.3317086
-4.510089	HOUSING	-0.331977
-2.777695	HOW	-0.3940334
-3.811119	HOW'S	-0.39682
-4.510089	HOWEVER	-0.3197016
-4.209059	HUGE	-0.3318965
-3.167666	HUH	-0.4754019
-4.510089	HUMAN	-0.3319234
-3.664991	HUNDRED	-0.3008773
-4.510089	HUNDRED(	-0.331977
-4.510089	HUNDREDS	-0.3287175
-4.510089	HURRICANE	-0.331977
-4.510089	HURT	-0.3294605
-4.209059	HUSBAND	-0.3287986
-1.554401	I	-0.8959141
-3.555846	I'D	-0.6183965
-2.97861	I'LL	-0.4478389
-2.333998	I'M	-0.6475719
-3.148361	I'VE	-0.5928491
-4.510089	IBM	-0.2944531
-4.209059	ICE	-0.3795512
-4.032968	ID	-0.2876113
-3.731938	IDEA	-0.3157915
-4.510089	IDEAS	-0.3287175
-3.731938	IDIOTIC	-0.3859663
-2.591011	IF	-0.7384042
-4.209059	IGNORE	-0.3252153
-4.209059	IGNORING	-0.3791754
-4.032968	ILL	-0.4235231
-3.908029	IMAGINATION	-0.3407221
-4.209059	IMAGINE	-0.327621
-4.510089	IMMEDIATELY	-0.329393
-4.032968	IMPOSSIBLE	-0.3860394
-2.287373	IN	-0.4963183
-3.908029	INCLUDED	-0.380493
-4.209059	INCLUDES	-0.3244651
-4.510089	INCOMPETENT	-0.3263995
-4.510089	INCONVENIENCE	-0.2944531
-3.510089	INCREDIBLE	-0.3060628
-4.209059	INCREDIBLY	-0.3319099
-3.731938	INDEED	-0.3316596
-3.908029	INFORMATION	-0.3609768
-3.908029	INFURIATE	-0.3901829
-3.908029	INN	-0.3287986
-4.510089	INSIDE	-0.3318697
-4.032968	INSIST	-0.4223001
-4.209059	INSPIRE	-0.3770481
-4.209059	INSPIRED	-0.3420407
-3.908029	INSTANCE	-0.3778167
-4.209059	INSTINCTS	-0.3773314
-4.209059	INSTINCTUAL	-0.3311442
-3.908029	INSUFFERABLE	-0.3804239
-3.908029	INSULTING	-0.3551755
-4.032968	INTEMPERATE	-0.4235365
-3.731938	INTERESTED	-0.3328781
-4.032968	INTERESTING(	-0.363022
-4.209059	INTERNET	-0.3314534
-4.510089	INTIMATE	-0.3315877
-4.510089	INTIMATELY	-0.3297438
-3.555846	INTO	-0.296554
-4.032968	INVITATION	-0.4229456
-4.032968	INVITE	-0.4227844
-4.209059	INVITED	-0.3787857
-4.510089	IRONS	-0.331977
-2.209059	IS	-0.5170286
-3.112149	ISN'T	-0.4813905
-1.999544	IT	-0.4708334
-2.316964	IT'S	-0.5301552
-4.510089	IT'TIL	-0.3197706
-4.510089	ITS	-0.3319099
-4.032968	JACKET	-0.3233773
-4.510089	JANE	-0.3197706
-4.510089	JANET	-0.2944531
-4.209059	JEALOUS	-0.3795244
-4.510089	JESUS	-0.2944531
-4.510089	JET	-0.3319636
-3.811119	JOB	-0.3304287
-4.510089	JOBS	-0.2944531
-3.305969	JOE	-0.3905852
-4.510089	JOE'S	-0.3319234
-4.510089	JOHN	-0.331977
-4.209059	JOKE	-0.3420407
-4.510089	JOKES	-0.3307138
-4.510089	JUMPED	-0.3315609
-4.510089	JUMPING	-0.3297438
-2.235931	JUST	-0.2779369
-4.032968	KANSAS	-0.3605858
-3.908029	KATE	-0.3551755
-4.510089	KATRINA	-0.331977
-3.731938	KEEP	-0.3428302
-4.032968	KEEPS	-0.4232546
-4.209059	KELLY	-0.3319502
-4.510089	KEYS	-0.3197016
-4.510089	KICKING	-0.331816
-3.468696	KID	-0.328927
-4.032968	KIDDING	-0.4210468
-3.908029	KIDS	-0.2978878
-4.032968	KILL	-0.35073
-3.908029	KILLED	-0.3926189
-2.97861	KIND	-1.540795
-3.468696	KISS	-0.4468656
-3.664991	KISSED	-0.3931628
-4.032968	KITCHEN	-0.3194927
-4.209059	KNEE	-0.3673582
-4.209059	KNEES	-0.3790007
-3.555846	KNEW	-0.3507296
-4.032968	KNICKERBOCKER	-0.4234828
-2.086843	KNOW	-0.6233163
-4.209059	KNOWN	-0.3305119
-3.731938	KNOWS	-0.3178874
-4.209059	L	-0.3746119
-4.510089	LA	-0.3303099
-4.510089	LAME	-0.2944531
-4.032968	LAND	-0.4233888
-4.510089	LANGUAGE	-0.2944531
-3.664991	LARRY	-0.2825353
-3.555846	LARRY'S	-0.3639795
-3.167666	LAST	-0.3697341
-4.032968	LATER	-0.3241999
-3.363961	LAUGH	-0.7764221
-4.209059	LAW	-0.328704
-4.510089	LAWSUIT	-0.3319502
-4.510089	LAX	-0.2944531
-4.209059	LAYING	-0.3795512
-3.664991	LEAST	-0.3583908
-3.731938	LEAVE	-0.2956484
-4.209059	LEAVES	-0.3746119
-4.209059	LEAVING	-0.3209558
-3.908029	LEFT	-0.2917234
-4.209059	LEMMINGS	-0.3753713
-4.209059	LESS	-0.3795512
-3.18787	LET	-0.6661361
-3.129878	LET'S	-0.423443
-3.908029	LETTER	-0.3109914
-3.811119	LETTERS	-0.2987721
-4.510089	LETTING	-0.3313862
-3.606999	LIFE	-0.3151641
-4.032968	LIFE'S	-0.3614353
-4.510089	LIGHT	-0.2944531
-3.908029	LIGHTS	-0.3931887
-2.226788	LIKE	-0.4849699
-4.510089	LIKES	-0.325801
-3.363961	LINE	-0.2613856
-3.664991	LIQUOR	-0.4054981
-4.510089	LIST	-0.3304581
-3.363961	LISTEN	-0.3231894
-3.908029	LISTENING	-0.3865234
-2.731938	LITTLE	-0.3547513
-3.510089	LIVE	-0.3413113
-4.510089	LIVED	-0.3297438
-4.209059	LIVES	-0.3248745
-4.209059	LIVING	-0.3310501
-4.510089	LOADED	-0.3319234
-4.510089	LOANS	-0.331534
-4.209059	LOATH	-0.3673582
-4.032968	LOATHE	-0.3451578
-4.510089	LOBBY	-0.2944531
-4.209059	LOCK	-0.289687
-4.032968	LOCKER	-0.274822
-4.209059	LODGING	-0.3773314
-2.991575	LONG	-0.5253083
-3.811119	LONGER	-0.3624364
-2.837991	LOOK	-0.4666171
-3.908029	LOOKED	-0.3916111
-3.606999	LOOKING	-0.3786566
-4.510089	LOOSE	-0.3319636
-4.032968	LOOT	-0.4179858
-4.510089	LOSE	-0.327621
-4.510089	LOSER	-0.3197016
-4.510089	LOSING	-0.3270243
-3.510089	LOST	-0.3189451
-3.333998	LOT	-0.4273112
-3.731938	LOTS	-0.4146703
-3.18787	LOVE	-0.6432896
-3.811119	LOVED	-0.3585584
-4.209059	LOVELY	-0.3783957
-4.209059	LOVES	-0.379135
-4.510089	LUCKED	-0.3308887
-3.908029	LUCKY	-0.3545823
-4.510089	LUDICROUS	-0.3319368
-3.305969	LUGGAGE	-0.3707094
-4.510089	LUMBER	-0.331977
-4.510089	LURE	-0.3266169
-4.510089	M	-0.331977
-4.032968	MA'AM	-0.3287175
-4.510089	MAAM	-0.3300135
-4.510089	MACHINES	-0.2944531
-4.032968	MAD	-0.3860394
-3.664991	MADE	-0.364667
-4.032968	MAGIC	-0.3236998
-4.510089	MAIL	-0.3303099
-4.510089	MAJOR	-0.3297438
-3.095116	MAKE	-0.6618569
-4.209059	MAKES	-0.3294469
-4.209059	MAKING	-0.3794036
-4.510089	MALIBU	-0.3277836
-3.032968	MAN	-0.3685171
-3.664991	MANAGER	-0.3157278
-3.468696	MANY	-0.3149644
-4.032968	MAP	-0.3607883
-4.209059	MARGE	-0.3263723
-3.396146	MARRIED	-0.3410589
-3.129878	MARRY	-1.0452
-4.510089	MARRYING	-0.331977
-4.510089	MARYLAND	-0.3298922
-4.209059	MASS	-0.3763052
-4.032968	MASSIVE	-0.4235365
-3.908029	MATCH	-0.3960744
-4.209059	MATING	-0.378947
-3.363961	MATTER	-0.3638507
-4.209059	MATTERS	-0.3420407
-4.510089	MATTRESSES	-0.331534
-4.510089	MAY	-0.3305254
-3.062931	MAYBE	-0.3971008
-2.235931	ME	-0.4608347
-4.510089	ME'CAUSE	-0.3197016
-2.623598	MEAN	-0.2981339
-3.811119	MEANING	-0.3615351
-4.510089	MEANS	-0.3307407
-4.510089	MEANT	-0.329393
-4.510089	MEMBERS	-0.2944531
-3.811119	MEMORIAL	-0.3693255
-4.209059	MEMORIZED	-0.3237682
-3.664991	MEN	-0.3026724
-4.032968	MENTION	-0.3463449
-4.032968	MENTIONED	-0.3627803
-4.510089	MESS	-0.3287175
-4.510089	MESSED	-0.3309695
-4.510089	MI	-0.3317488
-4.510089	MICROPHONE	-0.2944531
-4.510089	MIDDLE	-0.3287175
-3.811119	MIDNIGHT	-0.3435886
-3.363961	MIGHT	-0.4193924
-4.510089	MIGHTY	-0.3197016
-4.510089	MILEAGE	-0.3315877
-4.510089	MILES	-0.3294605
-3.430908	MIND	-0.2935905
-3.908029	MINDED	-0.3979876
-3.908029	MINDEDNESS	-0.3913824
-4.510089	MINDS	-0.331977
-3.908029	MINE	-0.3504786
-3.430908	MINUTE	-0.3291984
-3.811119	MINUTES	-0.3421297
-4.510089	MISO	-0.331977
-4.510089	MISPLACE	-0.3270243
-4.510089	MISPLACED	-0.3316011
-4.032968	MISS	-0.3561361
-4.510089	MISSED	-0.3314937
-4.032968	MISSING	-0.4235097
-4.032968	MISTAKE	-0.3241412
-4.209059	MIXED	-0.3785571
-4.209059	MM	-0.3795244
-3.510089	MMHMM	-0.9918842
-3.908029	MMM	-0.3174784
-4.510089	MMMM	-0.3313459
-4.510089	MOLD	-0.3319368
-3.555846	MOM	-0.2775302
-3.731938	MOMENT	-0.3031098
-4.209059	MOMENTS	-0.3672892
-4.510089	MOMMY'S	-0.3305927
-3.468696	MONEY	-0.281843
-4.510089	MONSTER	-0.329393
-3.908029	MONTH	-0.3287851
-3.811119	MONTHS	-0.2864059
-3.908029	MONUMENT	-0.3112439
-3.606999	MOON	-0.3013338
-3.148361	MORE	-0.3462187
-3.908029	MORNING	-0.3861451
-4.032968	MOST	-0.3598429
-3.731938	MOTHER	-0.3334253
-4.032968	MOTHER'S	-0.3629414
-4.510089	MOTHERS	-0.2944531
-4.510089	MOUSE	-0.2944531
-4.032968	MOVE	-0.2938675
-4.510089	MOVED	-0.330808
-4.032968	MOVIE	-0.3189555
-4.209059	MOVING	-0.3296898
-4.510089	MRS	-0.3307811
-4.510089	MS	-0.3319636
-3.004939	MUCH	-0.4254109
-3.510089	MUST	-0.3433378
-4.209059	MUSTN'T	-0.378113
-2.468696	MY	-0.4280353
-3.396146	MYSELF	-0.3174739
-4.032968	MYSTERY	-0.3127164
-4.510089	NAH	-0.3292985
-4.209059	NAKED	-0.3256648
-3.254817	NAME	-0.3155551
-4.510089	NASTY	-0.3299596
-4.510089	NAT	-0.2944531
-4.209059	NATALIE	-0.3298652
-4.510089	NATION	-0.2944531
-4.510089	NATIONALLY	-0.331977
-4.209059	NATURAL	-0.3795512
-4.209059	NATURE	-0.3763052
-3.231335	NEED	-0.3291052
-4.510089	NEEDED	-0.2944531
-4.209059	NEEDN'T	-0.378113
-3.731938	NEEDS	-0.348758
-4.510089	NEITHER	-0.2944531
-4.510089	NEON	-0.331977
-4.510089	NETWORK	-0.3317623
-2.794086	NEVER	-0.4878211
-3.047691	NEW	-0.4080537
-3.664991	NEWS	-0.2873588
-4.209059	NEWSPAPERS	-0.3170015
-3.811119	NEXT	-0.2931785
-3.664991	NICE	-0.2920382
-3.333998	NIGHT	-0.3024808
-3.908029	NINE	-0.2788138
-2.331112	NO	-0.5476887
-3.731938	NOBODY	-0.387146
-3.811119	NONSENSE	-0.3660397
-2.354753	NOT	-0.4755372
-3.209059	NOTHING	-0.3220184
-4.510089	NOTICE	-0.3313862
-3.811119	NOTICED	-0.3888916
-2.819893	NOW	-0.4159292
-4.510089	NOWHERE	-0.3299596
-3.731938	NUMBER	-0.2751127
-4.510089	NURSES	-0.3307138
-4.209059	O	-0.331077
-4.510089	OASIS	-0.3197706
-4.510089	OBVIOUSLY	-0.3307407
-4.510089	OCEAN	-0.330283
-2.124483	OF	-0.4745958
-3.004939	OFF	-0.3441449
-4.510089	OFFER	-0.3197706
-2.453184	OH	-0.3430246
-4.510089	OK	-0.3307407
-2.684014	OKAY	-0.4100756
-4.510089	OKEY	-0.2944531
-3.664991	OLD	-0.301204
-4.510089	OLDER	-0.3317354
-4.510089	OLIVIA	-0.3317086
-2.532365	ON	-0.4658652
-3.731938	ONCE	-0.3504814
-2.697176	ONE	-0.360063
-4.032968	ONE'S	-0.3615027
-3.908029	ONES	-0.3551755
-3.129878	ONLY	-0.5236502
-4.209059	ONSTAGE	-0.313949
-4.209059	ONTO	-0.3742045
-4.510089	OOH	-0.331977
-3.811119	OPEN	-0.2972279
-4.510089	OPENED	-0.327621
-4.510089	OPENING	-0.3305119
-4.510089	OPINION	-0.3311443
-2.837991	OR	-0.3482496
-4.510089	ORANGE	-0.2944531
-4.209059	ORGY	-0.3420407
-3.27964	OTHER	-0.2980795
-4.209059	OTHERWISE	-0.3770346
-4.032968	OUGHT	-0.4173873
-3.18787	OUR	-0.3848693
-4.209059	OURS	-0.2939847
-2.596275	OUT	-0.6101399
-4.510089	OUTAGE	-0.3263995
-4.510089	OUTAGES	-0.3316951
-3.231335	OVER	-0.3060715
-3.908029	OVERBEARING	-0.3479895
-3.908029	OVERSEAS	-0.3801496
-3.811119	OWN	-0.3464876
-4.510089	P	-0.331977
-3.468696	PACK	-0.3230982
-4.510089	PACKED	-0.3297438
-4.209059	PACT	-0.3294199
-4.510089	PAID	-0.3297438
-4.209059	PAINT	-0.3793902
-3.908029	PAIR	-0.3894399
-4.032968	PALM	-0.3630891
-4.032968	PANTHERS	-0.42308
-4.510089	PANTIES	-0.3197706
-4.510089	PANTS	-0.3303099
-4.510089	PAPERS	-0.3318428
-4.510089	PARENT	-0.3294605
-3.908029	PARENTS	-0.3479293
-4.510089	PARIS	-0.3316817
-4.209059	PARK	-0.3263859
-3.811119	PART	-0.3300368
-3.811119	PARTICULAR	-0.3789164
-4.209059	PARTICULARLY	-0.3420407
-4.510089	PARTIES	-0.3307138
-3.555846	PARTY	-0.2999966
-3.811119	PASS	-0.3762996
-4.510089	PASSED	-0.3277836
-4.209059	PAST	-0.3223574
-4.510089	PATHETIC	-0.3197016
-4.510089	PATIENCE	-0.2944531
-4.032968	PATIENT	-0.3613814
-4.510089	PAUL	-0.3197016
-3.664991	PAY	-0.3507297
-4.510089	PAYING	-0.3315609
-4.510089	PAYPHONE	-0.3263995
-4.510089	PAYS	-0.3315609
-4.510089	PEACHES	-0.3263995
-4.209059	PEANUTS	-0.3794976
-4.510089	PENNIES	-0.3298922
-4.510089	PENNY	-0.331977
-3.078725	PEOPLE	-0.3056131
-4.510089	PER	-0.331977
-4.510089	PERCENT	-0.2944531
-4.209059	PERFECT	-0.3795512
-4.209059	PERFECTLY	-0.3795378
-4.510089	PERFORMANCE	-0.3197706
-4.209059	PERHAPS	-0.3782476
-4.032968	PERIOD	-0.3860394
-3.731938	PERSON	-0.3071684
-4.510089	PERSONAL	-0.3317354
-3.606999	PETER	-0.9541352
-4.510089	PETS	-0.3318831
-4.209059	PHENOMENON	-0.3152061
-4.209059	PHILOSOPHERS	-0.3792828
-3.231335	PHONE	-0.3054053
-4.510089	PHOTOGRAPHER'S	-0.331977
-4.510089	PICK	-0.3197706
-4.209059	PICTURES	-0.3420407
-4.510089	PIECE	-0.3287175
-3.664991	PIECES	-0.4051245
-4.209059	PILOT	-0.2883538
-4.510089	PINCH	-0.331977
-4.510089	PING	-0.331977
-4.510089	PINK	-0.3297438
-4.510089	PITCH	-0.2944531
-3.908029	PITY	-0.3372033
-3.606999	PLACE	-0.3393361
-4.510089	PLACED	-0.3307138
-4.510089	PLACES	-0.3263995
-4.510089	PLAN	-0.3297438
-3.908029	PLANE	-0.3508447
-4.209059	PLANES	-0.3253652
-4.510089	PLANNED	-0.3297438
-4.032968	PLANNING	-0.3585701
-4.032968	PLANS	-0.3190523
-4.510089	PLAY	-0.3294065
-4.209059	PLAYED	-0.3319099
-4.510089	PLAYS	-0.2944531
-3.811119	PLEASE	-0.3113284
-4.510089	PLEASURED	-0.3313862
-4.510089	PLENTY	-0.3287175
-3.811119	POCKET	-0.330235
-4.510089	POEMS	-0.3312115
-4.209059	POETRY	-0.3297303
-3.430908	POINT	-0.4726126
-4.510089	POINTLESS	-0.3298922
-4.510089	POINTS	-0.2944531
-4.209059	POISE	-0.3420407
-4.510089	POKES	-0.3317086
-4.510089	PONG	-0.2944531
-4.510089	POODLE	-0.3270243
-3.908029	POOR	-0.3427611
-3.908029	POP	-0.3139373
-4.510089	PORCH	-0.3197016
-4.510089	PORTION	-0.3316683
-4.510089	POSITIVE	-0.3315877
-4.510089	POSSIBLE	-0.331977
-4.510089	POUNDS	-0.3287175
-4.209059	POWER	-0.3319636
-4.510089	PR	-0.3197016
-4.510089	PRACTICE	-0.2944531
-4.209059	PREGNANT	-0.3420407
-3.908029	PRESENTS	-0.3453077
-4.510089	PRESIDENT	-0.3287175
-3.510089	PRETTY	-0.3823087
-3.148361	PROBABLY	-0.2734335
-3.555846	PROBLEM	-0.3298813
-4.510089	PROBLEMS	-0.3277836
-4.510089	PRODUCE	-0.3316817
-4.510089	PROFANITY	-0.3294065
-4.510089	PROMISE	-0.3197706
-4.510089	PROMOTED	-0.2944531
-4.510089	PRONOUNCING	-0.3313862
-4.510089	PROOF	-0.3297573
-4.510089	PROPERTY	-0.2944531
-4.510089	PROSPECT	-0.3319636
-3.811119	PROUD	-0.3754976
-4.209059	PROVE	-0.3752087
-4.510089	PROVEN	-0.3297438
-4.510089	PROVIDER	-0.2944531
-4.510089	PUBLICIZE	-0.327621
-4.510089	PULL	-0.3314131
-3.908029	PURE	-0.3926592
-3.430908	PUT	-0.354264
-4.209059	PUTTING	-0.3255014
-4.510089	QUEST	-0.3297438
-3.811119	QUESTION	-0.3791544
-3.908029	QUIET	-0.3873393
-4.510089	QUIT	-0.3313324
-3.606999	QUITE	-0.3906472
-3.811119	RACE	-0.3419083
-3.908029	RAINING	-0.3772775
-4.209059	RAISE	-0.3784629
-4.209059	RAN	-0.3312787
-4.209059	RANDOM	-0.3794841
-4.510089	RANKED	-0.2944531
-3.731938	RAT	-0.3692949
-3.510089	RATHER	-0.4509602
-4.510089	REACH	-0.3308887
-4.032968	READ	-0.3579595
-3.908029	READY	-0.3915681
-3.664991	REAL	-0.3552607
-4.510089	REALIZE	-0.3277836
-4.032968	REALIZED	-0.3244924
-3.129878	REALLY	-0.2621119
-4.510089	REALTOR	-0.3263995
-3.731938	REASON	-0.3682306
-4.209059	RECEIVING	-0.3795244
-4.510089	RECITING	-0.3311981
-4.510089	RECORD	-0.329393
-4.510089	RED	-0.3319636
-4.209059	REDLANDS	-0.3278107
-4.032968	REFRESHMENTS	-0.3231419
-4.032968	REFRIGERATOR	-0.3121763
-4.510089	REFUND	-0.3297438
-4.510089	REGULAR	-0.3319636
-4.510089	REIMBURSE	-0.3197706
-4.510089	REIMBURSEMENT	-0.3319636
-4.510089	RELEASE	-0.3319502
-3.129878	REMEMBER	-0.2861302
-4.510089	RENAMED	-0.331977
-4.209059	RENT	-0.3259779
-4.209059	REPLACE	-0.3792828
-4.510089	REPLACED	-0.3294065
-4.510089	REPORT	-0.3318563
-4.510089	REQUEST	-0.331534
-4.032968	RESERVATIONS	-0.3512681
-4.510089	RESERVED	-0.3297438
-4.209059	RESPONSIBILITY	-0.3791754
-4.510089	RESPONSIBLE	-0.3297438
-4.510089	RESTRAIN	-0.3310905
-4.209059	RESTRAINT	-0.3786781
-4.510089	RETURN	-0.325801
-4.510089	RIDE	-0.329393
-3.811119	RIDICULOUS	-0.3407646
-4.209059	RIDING	-0.3239869
-2.58581	RIGHT	-0.4710555
-4.510089	RILE	-0.3299326
-3.908029	RIOTOUS	-0.3981623
-4.510089	RIPPED	-0.3316817
-4.032968	ROCK	-0.2895687
-4.032968	ROLL	-0.3618393
-4.032968	ROLLING	-0.3608152
-4.510089	ROMANTIC	-0.2944531
-4.510089	ROOKIE	-0.3266169
-3.606999	ROOM	-0.3250907
-4.510089	ROOMS	-0.325801
-4.510089	ROSES	-0.3263995
-4.209059	ROSY	-0.3319233
-4.209059	ROTS	-0.3739871
-4.209059	ROUSER	-0.3795378
-4.032968	ROW	-0.3590851
-4.209059	RUB	-0.3287986
-4.510089	RUINED	-0.3316951
-3.664991	RUN	-0.3201405
-4.032968	RUNNING	-0.4234828
-4.209059	S	-0.3795244
-4.510089	SACRIFICE	-0.3197706
-4.510089	SACRIFICES	-0.2944531
-4.209059	SAD	-0.2943946
-3.908029	SADISTIC	-0.3926592
-3.004939	SAID	-0.3191552
-4.510089	SAKE	-0.329393
-3.606999	SAME	-0.3756152
-4.032968	SAN	-0.4235365
-3.664991	SAND	-0.3549578
-4.510089	SANTA	-0.331977
-4.209059	SARA	-0.2944238
-4.510089	SAT	-0.3297438
-4.510089	SATELLITES	-0.3292985
-4.510089	SAVING	-0.3266169
-4.510089	SAVOR	-0.3266169
-3.606999	SAW	-0.3472734
-3.209059	SAY	-0.4320273
-3.363961	SAYING	-0.3081301
-3.908029	SAYS	-0.3180143
-4.510089	SCENE	-0.3300135
-4.510089	SCHOLARSHIPS	-0.3303099
-3.811119	SCHOOL	-0.3434299
-4.510089	SCORED	-0.331977
-4.032968	SCRATCHING	-0.3549208
-4.510089	SEARCHING	-0.3305927
-4.510089	SEAS	-0.3197016
-4.510089	SEAT	-0.3299326
-4.209059	SEAWEED	-0.3420407
-4.510089	SECOND	-0.3319502
-4.510089	SECTION	-0.3287175
-4.032968	SECURITY	-0.2943214
-2.761901	SEE	-0.3989158
-4.209059	SEEING	-0.3215885
-3.811119	SEEM	-0.2871653
-4.032968	SEEMED	-0.3543187
-4.032968	SEEMS	-0.3237594
-3.908029	SEEN	-0.3142986
-4.510089	SEES	-0.327621
-4.510089	SELF	-0.331977
-3.908029	SELFISH	-0.3871219
-3.606999	SEND	-0.3667516
-4.510089	SENDING	-0.3197706
-3.664991	SENT	-0.3573799
-4.510089	SENTENCE	-0.33066
-4.510089	SENTIMENTAL	-0.331977
-3.510089	SERIOUS	-0.4323728
-4.209059	SERIOUSLY	-0.3315877
-3.908029	SERVICE	-0.2916645
-4.209059	SERVICES	-0.3256648
-3.908029	SET	-0.3164528
-4.032968	SETTLED	-0.4233888
-3.908029	SEVEN	-0.3488345
-3.908029	SEVERAL	-0.3926323
-4.032968	SEX	-0.4179858
-4.032968	SHAKING	-0.3860394
-3.811119	SHALL	-0.4012186
-4.510089	SHAN'T	-0.331722
-2.746661	SHE	-0.3690576
-3.18787	SHE'S	-0.4324241
-4.510089	SHERLOCK	-0.331977
-3.908029	SHH	-0.3408248
-4.209059	SHIVERS	-0.3785571
-3.908029	SHOES	-0.3104266
-4.032968	SHOOTING	-0.4235231
-4.510089	SHOPPING	-0.3297438
-4.510089	SHORT	-0.331977
-3.18787	SHOULD	-0.388425
-4.032968	SHOULD'VE	-0.4233888
-3.811119	SHOULDN'T	-0.369051
-3.555846	SHOW	-0.4769771
-4.032968	SHOWER	-0.3451578
-4.209059	SHOWS	-0.3785571
-3.305969	SHUT	-1.229428
-3.606999	SICK	-0.3108208
-4.510089	SIDER	-0.2944531
-4.032968	SIGN	-0.3215335
-4.032968	SILLIER	-0.3860394
-3.811119	SILVER	-0.3833461
-4.209059	SIM	-0.3318965
-4.510089	SIMPLE	-0.3308753
-3.468696	SINCE	-0.3194906
-3.731938	SINGLE	-0.3707625
-3.018727	SIR	-0.4680388
-3.731938	SIT	-0.3577693
-4.510089	SITTERS	-0.2944531
-4.032968	SITTING	-0.3299191
-3.305969	SIX	-0.8115023
-4.510089	SIXTEEN	-0.3318965
-4.209059	SLEEP	-0.3773314
-4.209059	SLEPT	-0.3773314
-4.510089	SLOT	-0.331977
-4.510089	SLOTS	-0.3307811
-4.510089	SLOW	-0.331977
-3.606999	SMALL	-0.375884
-3.468696	SNAP	-0.3438478
-4.209059	SNEAKING	-0.3785571
-2.413179	SO	-0.4358682
-4.510089	SOCIAL	-0.3319502
-4.510089	SOCK	-0.3311981
-4.032968	SOCKETS	-0.3860394
-3.908029	SOCKS	-0.3159685
-3.811119	SOFTBALL	-0.2779636
-4.510089	SOFTBALLS	-0.3319099
-4.209059	SOLD	-0.3142426
-2.828848	SOME	-0.4253345
-3.430908	SOMEBODY	-0.3434752
-4.510089	SOMEBODY'CAUSE	-0.3197016
-3.908029	SOMEHOW	-0.3498951
-3.664991	SOMEONE	-0.3639523
-4.510089	SOMEONE'S	-0.331977
-3.047691	SOMETHING	-0.4201245
-4.510089	SOMETIME	-0.2944531
-3.811119	SOMETIMES	-0.3673051
-3.231335	SOMEWHERE	-0.6268818
-4.209059	SON	-0.2939554
-4.032968	SOON	-0.324596
-4.209059	SOONER	-0.378947
-4.510089	SORE	-0.331977
-2.897305	SORRY	-0.4585863
-3.664991	SORT	-0.5796903
-4.510089	SORTED	-0.3308887
-4.510089	SOUP	-0.2944531
-4.510089	SPART	-0.3318428
-4.209059	SPAWNING	-0.378947
-4.032968	SPEAK	-0.3294064
-4.510089	SPEAKING	-0.33066
-4.510089	SPECIAL	-0.3197016
-4.510089	SPEND	-0.3303099
-4.510089	SPENT	-0.330808
-4.209059	SPINE	-0.3420407
-4.209059	SPLENDID	-0.3787722
-4.510089	SPONGE	-0.331977
-3.468696	SPOT	-0.282388
-4.510089	SPOTLIGHT	-0.3307138
-4.510089	SPRINKLERS	-0.2944531
-4.032968	SQUEAKERS	-0.4179858
-3.811119	STAND	-0.3775425
-3.27964	STANDING	-0.4631066
-3.664991	START	-0.2985388
-3.510089	STARTED	-0.5876323
-4.510089	STARVE	-0.3310905
-4.510089	STATE	-0.3277836
-3.27964	STAY	-0.5848313
-4.510089	STAYS	-0.3308887
-4.510089	STEAL	-0.327621
-4.510089	STEPS	-0.3311981
-4.510089	STICKING	-0.3309695
-4.209059	STIFF	-0.2930023
-3.333998	STILL	-0.362748
-3.908029	STING	-0.3478539
-4.510089	STOLE	-0.327621
-4.510089	STONES	-0.2944531
-3.606999	STOP	-0.5269067
-4.510089	STORY	-0.2944531
-4.209059	STRANGE	-0.294014
-4.032968	STRANGERS	-0.3616104
-4.510089	STREAM	-0.327621
-4.510089	STREET	-0.2944531
-4.510089	STREETS	-0.2944531
-4.032968	STRONG	-0.3597482
-4.510089	STRONGER	-0.3318965
-4.510089	STRUMPETS	-0.3319234
-4.510089	STUBBED	-0.3308753
-4.510089	STUCK	-0.3197706
-4.510089	STUDIO	-0.2944531
-3.731938	STUFF	-0.2960261
-3.664991	STUPID	-0.3006994
-4.032968	STYLE	-0.4229456
-4.209059	SU	-0.3793365
-3.664991	SUCH	-0.4001904
-4.032968	SUCKER	-0.3564224
-3.908029	SUDDEN	-0.3022593
-4.032968	SUDDENLY	-0.3307138
-4.510089	SUFFER	-0.3305119
-4.510089	SUFFERED	-0.33066
-4.209059	SUICIDE	-0.3795512
-4.510089	SUITCASE	-0.2944531
-4.510089	SUPERFICIAL	-0.3263995
-3.606999	SUPERVISOR	-0.2783889
-3.664991	SUPPOSE	-0.3328347
-3.396146	SUPPOSED	-1.139939
-3.27964	SURE	-0.3631659
-4.209059	SURGERY	-0.3255967
-4.510089	SURPRISE	-0.2944531
-4.032968	SURVIVE	-0.3263451
-4.032968	SWALLOWS	-0.3200603
-4.510089	SWEAR	-0.325801
-3.664991	SWEET	-0.5507405
-4.510089	SWEETEST	-0.3319502
-4.510089	SWEETNESS	-0.3263995
-3.731938	SWIM	-0.28654
-3.510089	SWIMMING	-0.3240104
-4.209059	SWINE	-0.3794305
-4.510089	SYMPTOMS	-0.3319502
-4.209059	SYSTEM	-0.3304311
-4.510089	SYSTEMS	-0.3297438
-4.510089	TABS	-0.3197706
-4.209059	TAGS	-0.3783015
-3.148361	TAKE	-0.3460224
-4.510089	TAKEN	-0.327621
-3.908029	TAKES	-0.350058
-4.209059	TAKING	-0.3195221
-4.209059	TALENT	-0.3773314
-4.510089	TALENTED	-0.2944531
-3.305969	TALK	-0.912189
-4.510089	TALKED	-0.330956
-4.032968	TALKING	-0.3620276
-4.510089	TARZAN	-0.2944531
-4.510089	TASTE	-0.2944531
-4.510089	TEAM	-0.3197016
-2.991575	TELL	-0.5995203
-4.510089	TELLING	-0.3197706
-4.209059	TEMPERAMENTAL	-0.3795244
-3.908029	TEMPERED	-0.3300943
-4.510089	TEMPORARY	-0.3314803
-4.032968	TEN	-0.3627132
-4.209059	TERRIBLE	-0.3795378
-3.664991	THAN	-0.3484971
-3.468696	THANK	-0.9091355
-4.032968	THANKS	-0.2672721
-2.015934	THAT	-0.4482558
-4.209059	THAT'LL	-0.3282847
-2.555846	THAT'S	-0.4139327
-1.910206	THE	-0.4432443
-4.510089	THEATRE	-0.3303099
-3.555846	THEIR	-0.3509673
-2.941887	THEM	-0.339437
-3.664991	THEMSELVES	-0.3714824
-2.684014	THEN	-0.4160265
-2.690545	THERE	-0.6044203
-2.991575	THERE'S	-0.3875557
-4.510089	THEREFORE	-0.2944531
-3.305969	THESE	-0.362968
-2.406285	THEY	-0.520173
-4.209059	THEY'D	-0.3793768
-4.032968	THEY'LL	-0.3615969
-3.731938	THEY'RE	-0.3415676
-2.930305	THING	-0.34572
-3.032968	THINGS	-0.3609877
-2.658831	THINK	-0.6108053
-3.305969	THINKING	-0.4952989
-4.510089	THINKS	-0.3317623
-2.224532	THIS	-0.4294637
-3.396146	THOSE	-0.3526074
-3.430908	THOUGH	-0.2796286
-3.231335	THOUGHT	-0.36083
-4.209059	THOUSAND	-0.3318696
-4.032968	THOUSANDS	-0.3542228
-4.032968	THRASH	-0.4192073
-3.305969	THREE	-0.3644298
-4.510089	THROAT	-0.3300135
-3.510089	THROUGH	-0.4872574
-4.209059	THROW	-0.3269292
-3.908029	THROWS	-0.3877466
-3.908029	TICKET	-0.3600389
-4.032968	TICKETS	-0.3199361
-4.209059	TILL	-0.3786781
-2.930305	TIME	-0.2729566
-4.209059	TIME'S	-0.3746119
-4.209059	TIMES	-0.3187619
-4.510089	TINY	-0.3319502
-3.908029	TIRED	-0.3894399
-1.849223	TO	-0.6092727
-3.908029	TODAY	-0.3551702
-4.510089	TOE	-0.3319636
-4.510089	TOES	-0.3263995
-3.811119	TOGETHER	-0.2715032
-3.664991	TOLD	-0.3420921
-4.032968	TOMORROW	-0.3180558
-3.664991	TONIGHT	-0.3094709
-2.97861	TOO	-0.4844769
-3.606999	TOOK	-0.3715609
-4.209059	TOP	-0.3286364
-4.510089	TOPIC	-0.329447
-3.908029	TORMENT	-0.3287005
-4.209059	TORTURE	-0.3770481
-3.908029	TOSS	-0.3500987
-4.032968	TOTALLY	-0.3239797
-4.032968	TOTS	-0.3860394
-4.032968	TOUGH	-0.4235365
-4.209059	TOWN	-0.3196325
-4.209059	TRADE	-0.3769806
-4.510089	TRAVEL	-0.3319368
-4.510089	TREE	-0.3308619
-4.032968	TRIED	-0.3563133
-4.510089	TRIP	-0.3297438
-4.510089	TRIPPED	-0.3313593
-4.209059	TRIVIAL	-0.3787722
-3.908029	TROUBLE	-0.2842994
-4.032968	TRUE	-0.3860394
-4.032968	TRUMPETS	-0.4179858
-4.510089	TRUST	-0.3294605
-4.510089	TRUTH	-0.3318563
-3.908029	TRY	-0.3865234
-3.811119	TRYING	-0.3717573
-4.510089	TUMORS	-0.2944531
-3.731938	TUNIS	-0.6133586
-3.27964	TURN	-0.6899096
-3.510089	TURNED	-0.356913
-4.510089	TURNING	-0.3307138
-4.510089	TURNS	-0.3308887
-3.811119	TWENTY	-0.3834134
-3.908029	TWICE	-0.3583337
-3.167666	TWO	-0.40812
-4.032968	U	-0.3630488
-4.510089	UGH	-0.3197016
-3.078725	UH	-0.2459737
-4.510089	UHH	-0.3197016
-4.209059	UHUH	-0.3306331
-4.510089	ULTIMATE	-0.331977
-3.18787	UM	-0.3548406
-3.731938	UMM	-0.2769596
-4.510089	UNATTACHED	-0.3317086
-4.032968	UNBELIEVABLE	-0.289894
-4.510089	UNDER	-0.3266169
-3.333998	UNDERSTAND	-0.3279248
-4.032968	UNEXPLAINABLE	-0.275449
-4.510089	UNFAIR	-0.3292985
-4.209059	UNFORTUNATE	-0.2943507
-4.032968	UNMISTAKABLE	-0.3618258
-4.209059	UNTIL	-0.3286769
-2.629275	UP	-0.4893304
-4.510089	UPSET	-0.2944531
-4.032968	UPSTAIRS	-0.3233037
-4.510089	URBAN	-0.331977
-3.908029	URGE	-0.2979643
-3.908029	URGENCY	-0.393379
-4.510089	URGH	-0.3307407
-4.510089	URN	-0.3292985
-3.129878	US	-0.2887215
-3.606999	USE	-0.3184856
-4.032968	USED	-0.4173873
-3.664991	UTTERLY	-0.3976904
-4.510089	UVENY	-0.2944531
-4.510089	V	-0.331722
-4.510089	VA	-0.3307138
-4.510089	VALUE	-0.327621
-4.032968	VAMPIRE	-0.4179858
-4.510089	VEGAS	-0.3299326
-4.209059	VENDOME	-0.2883538
-4.032968	VENICE	-0.3254164
-4.209059	VENOM	-0.379511
-4.209059	VERIFY	-0.331534
-4.510089	VERIZON	-0.3308753
-2.908029	VERY	-0.4791728
-4.510089	VESSEL	-0.331977
-4.510089	VIACOM	-0.3319636
-4.209059	VIBRATIONS	-0.3773314
-4.510089	VICTORIAN	-0.331977
-4.510089	VIDEOTAPE	-0.3316951
-3.606999	VIEW	-0.3711705
-3.811119	VILE	-0.3824975
-4.032968	VIOLENTLY	-0.4233754
-4.209059	VOICE	-0.3302425
-4.510089	VOTE	-0.330283
-3.333998	WAIT	-0.2934474
-3.731938	WAITED	-0.3329373
-3.254817	WAITING	-0.3995923
-3.908029	WAKE	-0.3731708
-3.731938	WALK	-0.3679577
-4.209059	WALKING	-0.3263315
-4.510089	WALLET	-0.3197016
-4.510089	WANDERING	-0.3317086
-2.514454	WANT	-0.7423795
-3.305969	WANTED	-0.8607249
-4.510089	WANTS	-0.325801
-3.811119	WAR	-0.3433118
-2.325397	WAS	-0.3380725
-4.032968	WASN'T	-0.3578373
-4.032968	WASTING	-0.4229456
-3.811119	WATCH	-0.379521
-3.731938	WATCHING	-0.4177003
-3.908029	WATER	-0.3590695
-3.231335	WAY	-0.3107706
-4.510089	WAYS	-0.2944531
-2.342772	WE	-0.5338634
-4.032968	WE'D	-0.3290418
-3.555846	WE'LL	-0.3687238
-3.047691	WE'RE	-0.4603585
-3.606999	WE'VE	-0.3744845
-4.032968	WEAK	-0.4235097
-4.209059	WEDDING	-0.3251063
-4.510089	WEDDINGS	-0.3311174
-3.731938	WEEK	-0.3824359
-4.032968	WEEKS	-0.3860394
-3.908029	WEIRD	-0.3364615
-4.510089	WEIRD'CAUSE	-0.3298922
-4.510089	WELCOME	-0.325801
-2.480705	WELL	-0.4524533
-4.209059	WENCH	-0.3739871
-3.18787	WENT	-0.5480193
-3.004939	WERE	-0.3343478
-3.664991	WEREN'T	-0.4008828
-4.510089	WEST	-0.331977
-4.510089	WET	-0.3197016
-2.233627	WHAT	-0.6427495
-4.510089	WHAT'D	-0.3197706
-3.18787	WHAT'S	-0.4318282
-3.811119	WHATEVER	-0.3460186
-4.032968	WHATEVER(	-0.2788441
-4.510089	WHEEL	-0.3287175
-4.510089	WHEELCHAIR	-0.3294065
-3.032968	WHEN	-0.4996218
-4.510089	WHENEVER	-0.3197016
-3.167666	WHERE	-0.31563
-3.908029	WHERE'S	-0.3528457
-4.510089	WHEREVER	-0.327621
-4.510089	WHICH	-0.3319234
-4.032968	WHILE	-0.3188394
-4.209059	WHISPERED	-0.3249154
-4.510089	WHITE	-0.3318831
-3.148361	WHO	-0.2992246
-4.209059	WHO'S	-0.3280274
-3.254817	WHOLE	-0.4614756
-4.209059	WHOSE	-0.3292849
-2.710748	WHY	-0.3709337
-4.510089	WHY'D	-0.3197706
-4.032968	WICKED	-0.3621756
-4.510089	WIDE	-0.3319234
-4.209059	WIFE	-0.3672892
-4.209059	WIGGLE	-0.3778976
-3.047691	WILL	-0.2880152
-4.510089	WIN	-0.3197706
-3.908029	WIND	-0.3588195
-4.209059	WINDOW	-0.3236725
-3.908029	WISH	-0.3864489
-4.209059	WISHES	-0.3782476
-4.209059	WISHING	-0.3753713
-2.514454	WITH	-0.5456927
-4.209059	WITHOUT	-0.3182497
-4.510089	WOKE	-0.3309695
-4.032968	WOMAN	-0.3621756
-3.908029	WOMAN'S	-0.3794841
-4.510089	WOMEN	-0.3197706
-4.510089	WON	-0.3318697
-3.430908	WON'T	-0.285449
-3.908029	WONDER	-0.3915977
-4.510089	WONDERFUL	-0.331977
-3.908029	WONDERING	-0.3915977
-4.510089	WORD	-0.3294605
-4.209059	WORDS	-0.3420407
-3.396146	WORK	-0.3057654
-4.209059	WORKED	-0.3255151
-3.908029	WORKING	-0.3460619
-4.209059	WORLD	-0.2810374
-3.908029	WORMS	-0.3965333
-3.811119	WORST	-0.319674
-4.032968	WORTH	-0.4203038
-2.717697	WOULD	-0.488554
-4.209059	WOULD'VE	-0.3316146
-3.396146	WOULDN'T	-0.3592535
-3.731938	WOW	-0.2885484
-4.510089	WRIGGLE	-0.3303099
-3.908029	WRITE	-0.3960474
-3.231335	WRONG	-0.307578
-4.209059	WROTE	-0.3238366
-4.209059	YARD	-0.3251063
-2.468696	YEAH	-0.5578387
-3.231335	YEAR	-0.3113093
-4.510089	YEAR'S	-0.3319368
-3.254817	YEARS	-0.3126842
-4.510089	YELL	-0.3310905
-4.510089	YELLING	-0.3319368
-2.802519	YES	-0.5321584
-3.731938	YET	-0.3190653
-3.731938	YORK	-0.3262578
-1.556813	YOU	-0.6382747
-3.811119	YOU'D	-0.3304581
-3.811119	YOU'LL	-0.3488453
-2.541606	YOU'RE	-0.5355895
-3.510089	YOU'VE	-0.4964914
-3.908029	YOUNG	-0.3135152
-4.209059	YOUNGER	-0.3786781
-2.591011	YOUR	-0.3653054
-4.032968	YOURS	-0.2914436
-3.363961	YOURSELF	-0.4052032
-4.510089	YOURSELF'TIL	-0.3307407
-3.908029	ZIPPED	-0.3962499
-2.215623	a	-0.42663
-4.510089	able	-0.3283659
-2.866636	about	-0.4133996
-3.811119	above	-0.7237339
-4.510089	acceptance	-0.3319636
-4.209059	accident	-0.3420407
-4.510089	account	-0.3318965
-4.510089	act	-0.3309157
-4.510089	acted	-0.3286634
-4.032968	acting	-0.3304176
-3.555846	actually	-0.330759
-4.510089	adders	-0.330956
-4.510089	address	-0.3286634
-4.510089	addressed	-0.331977
-4.510089	admit	-0.3312249
-4.510089	advising	-0.3255968
-4.510089	afford	-0.3283659
-4.510089	afraid	-0.3319368
-3.555846	after	-0.357715
-3.430908	again	-0.4325655
-4.510089	ago	-0.2944531
-4.209059	ah	-0.3249699
-4.032968	ahead	-0.3589496
-4.032968	air	-0.2928261
-4.510089	airline's	-0.331977
-4.510089	airplane	-0.3296089
-4.510089	airport	-0.3255968
-4.209059	alive	-0.3216022
-2.777695	all	-0.4869482
-4.510089	allure	-0.3289473
-4.510089	almost	-0.3314803
-3.811119	alone	-0.3241838
-4.510089	along	-0.3286634
-4.032968	already	-0.3313996
-3.468696	alright	-0.2845389
-3.468696	always	-0.3007323
-3.18787	am	-0.3530763
-4.209059	amanda	-0.2943799
-4.032968	amazing	-0.3182744
-4.510089	ambiguous	-0.2944531
-4.510089	amount	-0.3303773
-4.032968	amusing	-0.4235231
-4.510089	amy	-0.3309022
-3.510089	an	-0.3502435
-2.117392	and	-0.4907133
-4.510089	ann	-0.3305927
-4.510089	anna	-0.3319636
-3.396146	annie	-0.3463714
-4.510089	annie's	-0.3306869
-4.032968	another	-0.3316414
-4.510089	answer	-0.2944531
-3.510089	any	-0.3140088
-4.032968	anybody	-0.3251063
-4.032968	anyhow	-0.3246547
-4.209059	anymore	-0.294336
-4.510089	anyone	-0.3283659
-3.430908	anything	-0.3002427
-4.510089	anyways	-0.3319636
-4.510089	anywhere	-0.3252835
-4.510089	apparently	-0.3316683
-4.510089	applies	-0.3283659
-4.510089	appreciate	-0.2944531
-2.953787	are	-0.6762178
-4.510089	aren't	-0.3308753
-4.510089	argue	-0.3311443
-4.510089	arguing	-0.3306735
-4.510089	arms	-0.3306735
-3.430908	around	-0.3230415
-3.004939	as	-0.3602414
-4.032968	ashamed	-0.3255481
-3.333998	ask	-0.4587638
-3.664991	asked	-0.3467634
-4.209059	asking	-0.2943507
-2.941887	at	-0.4033472
-4.510089	audience	-0.3252835
-3.606999	augie	-0.315134
-4.510089	average	-0.3315877
-4.510089	avoid	-0.3305389
-3.363961	away	-0.3117943
-4.510089	awesome	-0.3316951
-4.510089	awful	-0.331977
-4.510089	awhile	-0.2944531
-3.811119	babe	-0.2970156
-4.209059	baby	-0.2911341
-3.209059	back	-0.2909042
-4.032968	backersen	-0.3255188
-4.032968	bad	-0.2865399
-3.908029	baltimore	-0.2837749
-4.510089	bank	-0.331977
-4.209059	barefoot	-0.3782746
-4.510089	bark	-0.3313728
-4.510089	barrymore	-0.3309022
-4.510089	bathroom	-0.3311443
-4.510089	battling	-0.3318965
-2.664991	be	-0.3438822
-3.731938	beach	-0.3035404
-3.606999	beast	-0.3852991
-3.908029	beautiful	-0.3088173
-4.510089	beautifully	-0.2944531
-3.129878	because	-0.3742555
-4.209059	become	-0.3769266
-4.510089	bed	-0.2944531
-3.231335	been	-0.3106371
-4.510089	beer	-0.331977
-3.664991	before	-0.3126442
-4.510089	beginning	-0.3283659
-4.510089	behave	-0.331977
-4.209059	behind	-0.3310367
-3.468696	being	-0.3629768
-3.510089	believe	-0.306357
-4.510089	believing	-0.2944531
-4.209059	best	-0.3792694
-3.430908	better	-0.295875
-4.032968	big	-0.3314399
-4.510089	bill	-0.3313996
-4.510089	bills	-0.331722
-3.731938	bit	-0.3610984
-4.510089	biting	-0.3286634
-4.032968	blanket	-0.2935158
-4.032968	blood	-0.3624041
-4.032968	blow	-0.3319233
-4.510089	boats	-0.3316951
-4.510089	bodies	-0.2944531
-4.510089	boorish	-0.3286634
-4.032968	bored	-0.3622563
-4.209059	boston	-0.3278107
-4.032968	both	-0.3305119
-4.209059	bottle	-0.3779649
-4.510089	bound	-0.3283659
-3.811119	boy	-0.2902931
-4.032968	brand	-0.4233083
-3.811119	brandy	-0.3417325
-4.510089	bread	-0.3286634
-3.908029	brent	-0.3987532
-4.510089	brian	-0.3252835
-3.811119	bring	-0.3422098
-4.510089	brings	-0.3317086
-4.510089	bristling	-0.3311443
-4.510089	broach	-0.2944531
-4.209059	broke	-0.3795244
-3.811119	brother	-0.3388622
-3.664991	brought	-0.351685
-4.209059	brown	-0.2943068
-3.908029	brute	-0.3175516
-4.209059	build	-0.3793096
-4.209059	bully	-0.3420407
-4.510089	bumps	-0.3315877
-4.510089	bunch	-0.3303773
-3.908029	burden	-0.3611378
-4.510089	burst	-0.3306869
-4.209059	bus	-0.3795512
-3.305969	business	-0.3883553
-4.510089	busy	-0.2944531
-2.710748	but	-0.4283152
-4.510089	buy	-0.331628
-4.032968	by	-0.3309156
-4.209059	c	-0.3252289
-4.209059	cad	-0.3795512
-4.209059	california	-0.3795244
-3.664991	call	-0.3272142
-4.209059	called	-0.3781265
-3.811119	calling	-0.3830635
-3.908029	calls	-0.2897462
-3.664991	calm	-0.4054042
-3.209059	came	-0.4036663
-4.209059	camera	-0.3793633
-2.710748	can	-0.4295208
-3.032968	can't	-0.3385766
-4.209059	cancer	-0.3222202
-4.510089	capistrano	-0.3316951
-4.510089	caption	-0.2944531
-3.811119	car	-0.3405384
-3.811119	card	-0.3223574
-4.510089	cards	-0.3311443
-3.731938	care	-0.2828895
-4.032968	carla	-0.2865399
-4.209059	carry	-0.3310098
-4.510089	cast	-0.3319234
-4.510089	catch	-0.3255968
-3.606999	cause	-0.3052799
-4.209059	celebration	-0.3779649
-4.510089	certainly	-0.3255968
-4.510089	chair	-0.2944531
-4.209059	challenge	-0.3792559
-3.908029	champagne	-0.3576409
-4.209059	changed	-0.3790813
-4.510089	charging	-0.3255968
-4.209059	charles	-0.3290013
-4.032968	cheap	-0.3630756
-3.811119	check	-0.3455637
-4.209059	checkbook	-0.2904998
-4.510089	checked	-0.3306869
-4.032968	cheese	-0.3255627
-4.510089	cheesy	-0.3318697
-3.664991	child	-0.5867255
-4.510089	children	-0.3318563
-4.510089	chose	-0.3283659
-3.731938	chris	-0.2891931
-4.032968	chuck	-0.4235231
-4.209059	city	-0.2944092
-4.209059	clapping	-0.3762511
-4.510089	clasped	-0.3318965
-4.510089	clerk	-0.2944531
-4.510089	cliffs	-0.3317623
-4.510089	close	-0.3319099
-3.908029	coast	-0.3918273
-4.510089	cold	-0.3308887
-3.27964	come	-0.3420458
-3.908029	comes	-0.3311712
-3.664991	coming	-0.3449454
-4.209059	command	-0.3779649
-4.510089	commercials	-0.3286634
-4.209059	company	-0.3420407
-4.510089	compensating	-0.3255968
-4.510089	completely	-0.3310233
-4.510089	computer	-0.3252835
-4.510089	conceited	-0.3286634
-4.510089	connect	-0.3255968
-4.510089	considerate	-0.331977
-4.510089	considering	-0.3255968
-4.032968	contact	-0.3567084
-3.908029	contract	-0.3268478
-4.510089	contracts	-0.3306735
-4.510089	contradict	-0.3315609
-4.510089	contrary	-0.329339
-4.209059	control	-0.3317488
-4.209059	conversation	-0.2932664
-4.510089	cool	-0.2944531
-4.510089	cooperate	-0.3311443
-4.510089	cost	-0.3319368
-3.231335	could	-0.3166276
-4.510089	could've	-0.331977
-3.908029	couldn't	-0.3540446
-4.510089	count	-0.3315877
-4.510089	couple	-0.3319234
-4.510089	course	-0.3252835
-4.510089	court	-0.3309022
-4.209059	crack	-0.3762511
-4.209059	cracked	-0.3788126
-4.510089	cracker	-0.3318697
-4.209059	crawling	-0.3280951
-4.209059	crazy	-0.3782611
-4.510089	cream	-0.329339
-4.209059	created	-0.2915614
-3.731938	cried	-0.3405313
-4.510089	cruel	-0.331977
-4.209059	customer	-0.2943946
-3.510089	dad	-0.3272865
-4.510089	dad's	-0.3310233
-4.209059	daddy	-0.3286228
-4.510089	dammit	-0.330956
-4.510089	damn	-0.3319502
-4.510089	damned	-0.3319636
-4.510089	danced	-0.3319636
-4.510089	dancing	-0.3319636
-4.032968	dare	-0.3249699
-4.209059	darling	-0.3318696
-4.510089	daughter	-0.3315071
-3.510089	day	-0.318924
-3.908029	days	-0.3134502
-4.510089	deal	-0.2944531
-3.811119	dear	-0.2881609
-4.209059	death	-0.2936624
-4.510089	debate	-0.3313996
-4.510089	decision	-0.3311308
-4.510089	deduction	-0.2944531
-4.209059	definitely	-0.3309022
-4.510089	delight	-0.3303773
-4.209059	delta	-0.2942775
-4.209059	demand	-0.294014
-4.510089	deserves	-0.3296089
-4.209059	destroyed	-0.330808
-4.510089	detroit	-0.331628
-4.510089	devil	-0.3315877
-4.510089	diamonds	-0.3306869
-3.167666	did	-0.7274375
-3.062931	didn't	-0.3849759
-3.664991	die	-0.3184956
-4.209059	died	-0.3731844
-4.032968	diego	-0.2943946
-4.209059	difference	-0.3759535
-4.510089	different	-0.331977
-4.510089	digits	-0.3303773
-4.032968	direct	-0.3624579
-4.510089	dirty	-0.3305389
-4.510089	disease	-0.2944531
-4.209059	dishonest	-0.2935304
-4.510089	divorce	-0.2944531
-2.596275	do	-0.6258548
-4.032968	does	-0.3265761
-4.209059	doesn't	-0.3318562
-3.731938	doing	-0.3330253
-4.510089	dollar	-0.329339
-4.032968	dollars	-0.3255481
-2.623598	don't	-0.5132309
-4.510089	done	-0.3252835
-4.510089	dorm	-0.3311443
-3.430908	down	-0.3057462
-4.510089	downstairs	-0.3315071
-4.209059	downtown	-0.2932664
-4.510089	dreadfully	-0.330956
-4.209059	dream	-0.3298786
-4.510089	drew	-0.331977
-4.510089	drink	-0.3289473
-4.510089	drinking	-0.3313324
-3.664991	drive	-0.364599
-4.510089	drives	-0.3317086
-4.209059	driving	-0.3305254
-4.209059	drop	-0.3286363
-4.510089	dropped	-0.3310233
-3.664991	drunk	-0.5506234
-4.209059	dry	-0.3795512
-4.510089	during	-0.329339
-3.908029	e	-0.3987532
-3.908029	each	-0.3925786
-4.510089	ear	-0.3309022
-4.209059	earth	-0.3307542
-4.510089	easy	-0.3311443
-4.510089	eat	-0.3289473
-4.510089	eggs	-0.3316951
-3.908029	eight	-0.3517246
-4.510089	either	-0.3313593
-4.510089	electrical	-0.3319636
-3.430908	else	-0.3254861
-4.209059	embarrassed	-0.3302425
-4.510089	embarrassing	-0.3255968
-4.510089	emergency	-0.3296089
-3.731938	end	-0.3432637
-4.510089	enjoyable	-0.3255968
-4.510089	enjoys	-0.331977
-3.731938	enough	-0.3331
-3.811119	entire	-0.3499347
-4.510089	europe	-0.2944531
-3.555846	even	-0.339783
-3.811119	evening	-0.3207586
-4.510089	event	-0.3297708
-4.510089	eventually	-0.2944531
-3.510089	ever	-0.2919294
-3.664991	every	-0.3793705
-4.510089	everybody	-0.3319636
-3.811119	everyone	-0.3227414
-4.510089	everyone's	-0.3319636
-3.606999	everything	-0.3410934
-4.510089	everything's	-0.3318428
-4.032968	evil	-0.4235365
-4.032968	exactly	-0.2901157
-4.510089	except	-0.3297708
-3.664991	excited	-0.2856302
-4.209059	expect	-0.3295279
-4.510089	expected	-0.3296089
-4.510089	explanation	-0.3255968
-4.510089	exquisitely	-0.2944531
-4.510089	eye	-0.331977
-4.510089	eyes	-0.3312787
-4.510089	face	-0.2944531
-4.032968	fact	-0.3263586
-4.032968	faith	-0.324069
-4.510089	faithful	-0.3315609
-4.510089	fall	-0.3313324
-3.908029	family	-0.3469789
-3.908029	far	-0.354542
-4.510089	fat	-0.331977
-4.032968	father	-0.3620814
-4.510089	fault	-0.3252835
-4.510089	fax	-0.3296089
-3.363961	feel	-0.3200535
-4.510089	feeling	-0.2944531
-4.510089	feels	-0.3317891
-4.510089	fella	-0.3286634
-3.664991	felt	-0.3960091
-4.510089	few	-0.3319636
-4.510089	fiend	-0.3286634
-4.510089	fifteen	-0.331977
-4.209059	fighting	-0.2935304
-4.209059	figure	-0.3789201
-4.209059	figured	-0.3765349
-4.510089	figures	-0.3303773
-4.510089	fill	-0.3313324
-4.510089	filled	-0.3313324
-3.908029	finally	-0.3304581
-3.731938	find	-0.3679035
-4.510089	fine	-0.2944531
-4.510089	finished	-0.3289473
-4.209059	fire	-0.3316548
-4.510089	firing	-0.3309022
-3.555846	first	-0.3288173
-3.363961	fish	-0.3538672
-4.032968	fit	-0.2935891
-3.908029	five	-0.2928262
-3.664991	flashlight	-0.3237716
-4.510089	flat	-0.3313324
-3.606999	flight	-0.2931631
-4.209059	flights	-0.379417
-3.908029	floor	-0.312785
-4.510089	flop	-0.3318294
-4.510089	flopping	-0.3318294
-4.209059	fly	-0.3795512
-4.510089	foam	-0.331977
-4.510089	follow	-0.3318025
-4.510089	footsteps	-0.3255968
-2.518863	for	-0.4333653
-4.209059	forever	-0.2908244
-4.510089	forget	-0.3313996
-4.209059	forgive	-0.3731844
-3.731938	forgot	-0.3490284
-4.209059	forgotten	-0.3791485
-4.510089	form	-0.3286634
-4.209059	formed	-0.3279868
-3.908029	fortune	-0.3406047
-4.510089	forty	-0.3319502
-4.032968	found	-0.2926646
-3.811119	four	-0.3258418
-4.510089	freaking	-0.3313324
-3.510089	free	-0.288932
-4.510089	friends	-0.3303773
-3.363961	from	-0.3217289
-4.510089	front	-0.331977
-4.209059	full	-0.3317891
-4.209059	fun	-0.2936624
-4.209059	funeral	-0.3795378
-4.209059	funny	-0.3252153
-4.209059	further	-0.3790813
-4.510089	game	-0.3319234
-4.032968	gave	-0.4221252
-4.209059	geez	-0.3420407
-2.897305	get	-0.4356909
-3.811119	getting	-0.3303099
-4.510089	gifted	-0.2944531
-4.032968	girl	-0.3279597
-4.209059	girlfriend	-0.3293659
-3.129878	give	-0.9540308
-4.510089	given	-0.3296089
-4.209059	giving	-0.3794841
-4.510089	glass	-0.3303773
-3.908029	glasses	-0.3152337
-3.078725	go	-0.3129371
-3.129878	god	-0.372281
-4.209059	goddamn	-0.3295819
-4.209059	goes	-0.3307676
-2.646766	going	-1.033413
-3.811119	gone	-0.3120179
-3.396146	good	-0.2964702
-4.510089	goodbye	-0.2944531
-4.510089	goodies	-0.3319099
-4.510089	goose	-0.331977
-4.510089	goosebumps	-0.3315877
-2.930305	got	-0.5536329
-4.510089	gotten	-0.3318965
-4.209059	grand	-0.3781804
-4.510089	granted	-0.3316951
-3.510089	great	-0.3003286
-4.209059	grow	-0.3249426
-4.209059	grub	-0.3782611
-4.209059	grunions	-0.2939261
-3.305969	guess	-0.4418744
-4.209059	guy	-0.3420407
-3.606999	guys	-0.3176651
-4.209059	habit	-0.3787319
-3.129878	had	-0.344757
-4.510089	hair	-0.3286634
-4.209059	hairs	-0.3307945
-3.908029	half	-0.3538562
-4.510089	hand	-0.3316817
-4.032968	hands	-0.3597888
-4.510089	handsome	-0.3309022
-4.510089	hang	-0.3306869
-4.510089	hanging	-0.3306869
-3.510089	happen	-0.2945504
-3.430908	happened	-0.3100375
-3.908029	happens	-0.2928262
-3.510089	happy	-0.4805179
-3.731938	hard	-0.3306825
-4.510089	hardly	-0.3319099
-4.510089	harm	-0.3315609
-3.555846	has	-0.3017127
-3.606999	hate	-0.5434086
-4.510089	hats	-0.2944531
-2.658831	have	-0.5016013
-3.908029	haven't	-0.3545151
-4.032968	having	-0.3246562
-2.754214	he	-0.4328303
-3.555846	he's	-0.3285417
-4.209059	head	-0.3420407
-4.510089	heading	-0.3306465
-3.664991	hear	-0.3653089
-4.209059	heard	-0.3769266
-3.908029	hell	-0.3522247
-4.032968	hell's	-0.3590986
-3.908029	hello	-0.285197
-3.363961	help	-0.4716931
-4.510089	helps	-0.329339
-3.129878	her	-0.3193084
-2.819893	here	-0.5333771
-4.510089	herself	-0.329339
-3.510089	hey	-0.3436976
-4.209059	hide	-0.2943653
-4.510089	high	-0.3319502
-4.510089	highlight	-0.3289473
-3.004939	him	-0.4830484
-3.363961	his	-0.3576419
-4.209059	hit	-0.3241236
-4.510089	hmm	-0.3252835
-3.908029	hmmm	-0.2901601
-3.908029	holiday	-0.3926592
-4.510089	holmes	-0.3316683
-4.032968	home	-0.289894
-3.908029	honey	-0.2842245
-4.209059	hook	-0.3731844
-4.510089	hoops	-0.2944531
-3.606999	hope	-0.3276504
-4.510089	hopefully	-0.3296089
-4.510089	horrible	-0.3255968
-4.510089	hot	-0.2944531
-4.032968	hotel	-0.3630891
-4.209059	hour	-0.3789201
-4.209059	hours	-0.2944092
-3.731938	house	-0.3752358
-3.032968	how	-0.3628146
-4.032968	how's	-0.4211952
-4.510089	huge	-0.3319636
-3.731938	huh	-0.3528735
-4.510089	human	-0.3319502
-3.908029	hundred	-0.3175369
-4.510089	hundred(	-0.331977
-4.510089	hundreds	-0.3303773
-4.510089	hurricane	-0.331977
-4.510089	hurt	-0.3305389
-1.814607	i	-0.8413926
-4.209059	i'd	-0.3795244
-3.231335	i'll	-0.4177887
-2.532365	i'm	-0.6831459
-3.430908	i've	-0.4608024
-4.510089	ibm	-0.2944531
-4.510089	ice	-0.331977
-4.510089	id	-0.3319368
-4.510089	idea	-0.3319502
-4.209059	idiotic	-0.2944092
-2.847331	if	-0.6054564
-4.510089	ignoring	-0.3318428
-4.510089	ill	-0.331977
-4.209059	imagination	-0.2938528
-4.209059	imagine	-0.3297303
-4.510089	immediately	-0.3306465
-4.510089	impossible	-0.2944531
-2.523317	in	-0.5107987
-4.209059	included	-0.3731844
-4.510089	includes	-0.3305389
-4.510089	incompetent	-0.3286634
-4.209059	incredible	-0.3791082
-3.908029	indeed	-0.3163795
-4.209059	information	-0.3420407
-4.209059	infuriate	-0.3781265
-3.908029	inn	-0.3301348
-4.510089	insist	-0.3312787
-4.510089	inspire	-0.3305389
-4.209059	instance	-0.3791082
-4.510089	instinctual	-0.3319636
-4.209059	insufferable	-0.3728711
-4.209059	insulting	-0.3420407
-4.510089	intemperate	-0.331977
-4.209059	interested	-0.3787319
-4.510089	interesting(	-0.331977
-4.510089	intimately	-0.3306869
-3.908029	into	-0.3764673
-4.209059	invitation	-0.3792828
-4.209059	invite	-0.3792559
-2.518863	is	-0.4846256
-3.363961	isn't	-0.39759
-2.262116	it	-0.4902058
-2.591011	it's	-0.4353371
-4.510089	its	-0.3319636
-4.209059	jacket	-0.3420407
-4.510089	jane	-0.3255968
-4.510089	jealous	-0.3319636
-3.908029	job	-0.350804
-3.555846	joe	-0.3262203
-4.510089	joe's	-0.3319234
-4.510089	jokes	-0.3312787
-2.493056	just	-0.2872226
-4.510089	kansas	-0.3311308
-4.209059	kate	-0.3420407
-4.510089	katrina	-0.331977
-4.209059	keep	-0.3297573
-4.032968	keeps	-0.4233486
-4.209059	kelly	-0.3319502
-4.510089	keys	-0.3252835
-3.731938	kid	-0.3002782
-4.209059	kidding	-0.3781265
-4.032968	kids	-0.3182744
-4.510089	kill	-0.3255968
-4.209059	killed	-0.3795244
-3.430908	kind	-1.11233
-3.731938	kiss	-0.3673157
-4.032968	kissed	-0.3565586
-4.209059	kitchen	-0.3420407
-4.209059	knees	-0.3792559
-3.811119	knew	-0.3218221
-4.510089	knickerbocker	-0.3319502
-2.402879	know	-0.5348709
-4.209059	knows	-0.3773584
-4.510089	l	-0.329339
-4.510089	la	-0.3309022
-4.510089	lame	-0.2944531
-4.032968	land	-0.4234694
-4.032968	larry	-0.2837899
-3.908029	larry's	-0.3299326
-3.510089	last	-0.3403344
-4.209059	later	-0.293677
-3.731938	laugh	-0.3333477
-4.209059	law	-0.3303638
-4.510089	lax	-0.2944531
-4.510089	laying	-0.331977
-3.811119	least	-0.3464822
-3.731938	leave	-0.3020241
-4.510089	leaving	-0.3286634
-3.908029	left	-0.2928409
-4.510089	lemmings	-0.3297708
-3.606999	let	-0.3935025
-3.510089	let's	-0.3382999
-4.209059	letter	-0.2908244
-4.032968	letters	-0.3561906
-4.510089	letting	-0.3315609
-3.731938	life	-0.3048592
-4.209059	life's	-0.3308753
-4.032968	lights	-0.3597752
-2.606999	like	-0.4507908
-3.606999	line	-0.2917296
-4.032968	liquor	-0.3630622
-3.811119	listen	-0.2921354
-4.209059	listening	-0.3759535
-3.032968	little	-0.325186
-3.811119	live	-0.3107408
-4.510089	lives	-0.3286634
-4.510089	living	-0.3314937
-4.209059	loath	-0.3731844
-4.510089	loathe	-0.3255968
-4.510089	lobby	-0.2944531
-4.510089	lock	-0.3296089
-4.510089	locker	-0.2944531
-4.209059	lodging	-0.3782611
-3.396146	long	-0.3618956
-4.209059	longer	-0.3283117
-3.032968	look	-0.4661629
-4.209059	looked	-0.3789201
-4.209059	looking	-0.3301752
-4.209059	loot	-0.3762511
-4.510089	loser	-0.3252835
-4.510089	losing	-0.329339
-3.606999	lost	-0.3125038
-3.555846	lot	-0.3245007
-3.430908	love	-0.5249915
-3.811119	loved	-0.3633359
-4.510089	lovely	-0.3313324
-4.510089	loves	-0.3318025
-4.510089	lucky	-0.3319234
-3.305969	luggage	-0.3818931
-4.510089	lure	-0.3289473
-4.032968	ma'am	-0.3302156
-4.510089	maam	-0.3308753
-4.510089	mad	-0.2944531
-4.032968	made	-0.359978
-4.510089	magic	-0.3313324
-4.510089	major	-0.3306869
-3.430908	make	-0.8667476
-4.209059	makes	-0.3305254
-4.510089	making	-0.3318965
-3.148361	man	-0.3238462
-3.811119	manager	-0.2860481
-3.606999	many	-0.3055921
-4.209059	map	-0.3787185
-3.908029	married	-0.3448957
-3.333998	marry	-0.5674582
-4.510089	marrying	-0.331977
-4.510089	maryland	-0.3308753
-4.510089	mass	-0.3303773
-4.209059	massive	-0.3795512
-4.510089	match	-0.3306735
-4.510089	mating	-0.3316951
-3.731938	matter	-0.3723982
-4.209059	matters	-0.3420407
-4.510089	mattresses	-0.3317354
-4.510089	may	-0.3310502
-3.363961	maybe	-0.3089598
-2.476665	me	-0.4722686
-4.510089	me'cause	-0.3252835
-2.769726	mean	-0.3327281
-4.032968	meaning	-0.3602078
-4.510089	means	-0.3313593
-4.510089	members	-0.2944531
-4.209059	memorial	-0.3795512
-4.032968	men	-0.325431
-4.209059	mention	-0.3228647
-4.209059	mentioned	-0.3794841
-4.510089	messed	-0.3314937
-4.510089	microphone	-0.2944531
-4.510089	middle	-0.3303773
-4.209059	midnight	-0.3789604
-3.731938	might	-0.3608422
-4.510089	miles	-0.3305927
-3.664991	mind	-0.3270741
-4.032968	minded	-0.423174
-4.209059	mindedness	-0.3787319
-4.209059	mine	-0.3784629
-3.606999	minute	-0.3307768
-4.032968	minutes	-0.2918265
-4.510089	miso	-0.331977
-4.510089	misplace	-0.329339
-4.510089	misplaced	-0.331722
-4.032968	miss	-0.3593965
-4.209059	mistake	-0.3787319
-4.032968	mmm	-0.3630622
-4.510089	mmmm	-0.331628
-3.811119	mom	-0.3287851
-3.811119	moment	-0.3101082
-4.510089	moments	-0.3252835
-4.510089	mommy's	-0.3310098
-3.664991	money	-0.3247781
-4.510089	monster	-0.3306465
-4.510089	month	-0.3317623
-3.811119	months	-0.2896279
-4.209059	monument	-0.3794439
-3.811119	moon	-0.2858243
-3.430908	more	-0.3357092
-4.209059	morning	-0.3250381
-4.209059	most	-0.3779649
-4.510089	mother	-0.2944531
-4.209059	mother's	-0.3795512
-4.510089	mouse	-0.2944531
-4.209059	move	-0.2942775
-4.209059	movie	-0.3251472
-4.209059	moving	-0.3307811
-4.510089	ms	-0.3319636
-3.510089	much	-0.3200177
-3.731938	must	-0.3449128
-4.510089	mustn't	-0.3310502
-2.652756	my	-0.3962554
-3.664991	myself	-0.303425
-4.510089	mystery	-0.3286634
-4.510089	nah	-0.3306735
-3.363961	name	-0.3289951
-4.510089	nasty	-0.3309022
-4.510089	nat	-0.2944531
-4.209059	natalie	-0.3308484
-4.510089	nation	-0.2944531
-4.510089	natural	-0.331977
-4.209059	nature	-0.3779649
-3.430908	need	-0.3475811
-4.510089	needed	-0.2944531
-4.209059	needn't	-0.3786378
-4.209059	needs	-0.3219182
-4.510089	network	-0.3318428
-3.062931	never	-0.3627208
-3.209059	new	-0.3653491
-4.032968	news	-0.2874181
-4.209059	newspapers	-0.3242602
-4.209059	next	-0.3314937
-3.731938	nice	-0.3085129
-3.606999	night	-0.3005861
-4.209059	nine	-0.2943799
-2.601604	no	-0.4512108
-3.908029	nobody	-0.3773045
-2.652756	not	-0.4338998
-3.468696	nothing	-0.3199273
-4.510089	notice	-0.3315609
-4.209059	noticed	-0.3773584
-2.930305	now	-0.45962
-4.510089	nowhere	-0.3309022
-3.908029	number	-0.2844641
-4.510089	nurses	-0.3312787
-4.510089	o	-0.3315071
-4.510089	obviously	-0.3313593
-2.430908	of	-0.4454902
-3.363961	off	-0.3017817
-2.777695	oh	-0.3138192
-4.510089	ok	-0.3313593
-2.811119	okay	-0.4284951
-4.510089	okey	-0.2944531
-4.032968	old	-0.2907359
-4.510089	older	-0.3317757
-4.510089	olivia	-0.3317488
-2.785813	on	-0.4187858
-4.209059	once	-0.3259915
-2.966021	one	-0.3098354
-4.209059	one's	-0.3308753
-4.209059	ones	-0.3420407
-3.430908	only	-0.3180418
-4.209059	onstage	-0.3219045
-4.209059	onto	-0.3765349
-4.510089	ooh	-0.331977
-4.032968	open	-0.3585159
-4.510089	opened	-0.3296089
-4.510089	opinion	-0.3315743
-3.167666	or	-0.3118346
-4.510089	orange	-0.2944531
-4.510089	orgy	-0.2944531
-3.510089	other	-0.3438611
-4.209059	otherwise	-0.3781669
-4.510089	ought	-0.3283659
-3.510089	our	-0.3316682
-4.510089	ours	-0.3318428
-2.819893	out	-0.5072362
-4.510089	outage	-0.3286634
-4.510089	outages	-0.3318831
-3.510089	over	-0.2801765
-4.510089	overbearing	-0.3286634
-4.032968	overseas	-0.3527411
-4.510089	own	-0.3318965
-3.731938	pack	-0.3597212
-4.510089	pact	-0.3305793
-4.510089	paid	-0.3306735
-4.209059	pair	-0.3779649
-4.209059	palm	-0.3795512
-4.510089	panthers	-0.3318563
-4.510089	pants	-0.3309022
-4.510089	parent	-0.3305927
-4.209059	parents	-0.2874776
-4.032968	part	-0.3550985
-4.209059	particular	-0.3795244
-4.510089	particularly	-0.2944531
-4.032968	party	-0.3237135
-4.209059	pass	-0.3790813
-4.510089	past	-0.3289473
-4.510089	patience	-0.2944531
-4.032968	patient	-0.3618796
-4.510089	paul	-0.3252835
-4.510089	pay	-0.3319368
-4.510089	paying	-0.3318025
-4.510089	payphone	-0.3286634
-4.510089	pays	-0.3318025
-4.510089	peaches	-0.3286634
-4.209059	peanuts	-0.3794976
-3.468696	people	-0.2861673
-4.510089	percent	-0.2944531
-4.510089	perfectly	-0.3319636
-4.510089	performance	-0.3255968
-4.209059	perhaps	-0.3787319
-4.510089	period	-0.2944531
-4.032968	person	-0.2850176
-3.908029	peter	-0.3926592
-4.510089	phenomenon	-0.3296089
-3.305969	phone	-0.2986418
-4.510089	pictures	-0.2944531
-3.811119	pieces	-0.3824571
-4.209059	pilot	-0.2908244
-4.510089	pink	-0.3306735
-3.908029	place	-0.3297843
-4.510089	placed	-0.3312787
-4.510089	places	-0.3286634
-4.510089	plan	-0.3306735
-4.209059	plane	-0.3297573
-4.209059	planes	-0.3281628
-4.510089	planned	-0.3306735
-4.209059	planning	-0.3788663
-4.510089	plans	-0.3316951
-4.032968	please	-0.2943068
-4.510089	pleasured	-0.3315609
-4.209059	pocket	-0.3420407
-3.731938	point	-0.3419209
-4.510089	points	-0.2944531
-4.510089	pokes	-0.3318294
-4.209059	poor	-0.3252562
-4.510089	pop	-0.3306869
-4.510089	portion	-0.3318294
-4.510089	positive	-0.3316817
-4.510089	possible	-0.331977
-4.510089	pounds	-0.3303773
-4.209059	power	-0.3319636
-4.510089	pr	-0.3252835
-4.209059	pregnant	-0.3420407
-4.209059	presents	-0.3291499
-3.811119	pretty	-0.3494643
-3.363961	probably	-0.2889497
-3.731938	problem	-0.3074994
-4.510089	problems	-0.3297708
-4.510089	profanity	-0.3309157
-4.510089	promise	-0.3255968
-4.510089	promoted	-0.2944531
-4.510089	property	-0.2944531
-4.032968	proud	-0.4219636
-4.510089	proven	-0.3306869
-4.510089	provider	-0.2944531
-4.510089	pull	-0.331722
-4.209059	pure	-0.3795512
-3.731938	put	-0.3404513
-3.908029	question	-0.3968703
-4.209059	quiet	-0.3765349
-4.510089	quit	-0.3314803
-3.908029	quite	-0.3524273
-4.032968	race	-0.3254164
-4.209059	raining	-0.3795512
-4.510089	ran	-0.331722
-3.908029	rat	-0.3539369
-3.908029	rather	-0.3531289
-4.510089	reach	-0.3313324
-4.209059	read	-0.3292849
-4.032968	ready	-0.4222597
-3.731938	real	-0.3397828
-4.209059	realized	-0.3301886
-3.468696	really	-0.2850475
-4.510089	realtor	-0.3286634
-3.908029	reason	-0.3510479
-4.209059	receiving	-0.3795244
-4.510089	record	-0.3306465
-4.209059	refreshments	-0.2930317
-4.209059	refrigerator	-0.2871355
-4.510089	refund	-0.3306735
-4.510089	regular	-0.331977
-4.510089	reimburse	-0.3255968
-3.555846	remember	-0.2951512
-4.510089	report	-0.3318831
-4.510089	reservations	-0.3286634
-4.510089	reserved	-0.3306735
-4.209059	responsibility	-0.3792694
-4.510089	responsible	-0.3306735
-4.510089	restraint	-0.3314937
-4.209059	ridiculous	-0.2934425
-2.847331	right	-0.5138397
-4.510089	rile	-0.3310233
-4.209059	riotous	-0.3316414
-4.510089	ripped	-0.3318025
-4.209059	rock	-0.2933251
-4.510089	roll	-0.3318563
-4.510089	rolling	-0.3312787
-4.032968	room	-0.3600591
-4.510089	roses	-0.3286634
-4.510089	rosy	-0.3319502
-4.510089	rouser	-0.331977
-4.510089	row	-0.3310233
-4.510089	rub	-0.331628
-4.209059	run	-0.331816
-4.510089	running	-0.3319234
-4.510089	s	-0.3319636
-4.209059	sad	-0.2944385
-4.209059	sadistic	-0.3795512
-3.254817	said	-0.3123845
-3.811119	same	-0.3842468
-4.032968	san	-0.4235365
-3.811119	sand	-0.3488588
-4.209059	sara	-0.2944238
-4.510089	sat	-0.3306869
-4.510089	satellites	-0.3306735
-4.510089	savor	-0.3289473
-3.811119	saw	-0.343425
-3.430908	say	-0.4346079
-4.209059	saying	-0.2936624
-4.209059	says	-0.325188
-4.510089	scene	-0.3308753
-4.032968	school	-0.2926793
-4.510089	scored	-0.331977
-4.510089	scratching	-0.3309157
-4.510089	seaweed	-0.2944531
-4.032968	security	-0.2943507
-3.112149	see	-0.3139998
-4.510089	seeing	-0.3289473
-4.510089	seem	-0.3283659
-4.032968	seemed	-0.3584209
-4.032968	seems	-0.3244053
-4.032968	seen	-0.3230702
-4.510089	sees	-0.3296089
-4.209059	selfish	-0.3762511
-3.731938	send	-0.3820102
-4.510089	sending	-0.3255968
-3.811119	sent	-0.3423875
-3.664991	serious	-0.3228427
-3.908029	service	-0.2929583
-4.510089	services	-0.3315877
-4.209059	set	-0.2944385
-4.209059	settled	-0.3794573
-4.209059	seven	-0.3283117
-4.209059	several	-0.3795244
-4.209059	sex	-0.3762511
-4.209059	shaking	-0.3420407
-4.510089	shall	-0.3308753
-3.18787	she	-0.3569618
-3.510089	she's	-0.3682365
-4.510089	sherlock	-0.331977
-4.209059	shh	-0.2937796
-4.510089	shivers	-0.3314937
-4.510089	shoes	-0.3286634
-4.510089	shooting	-0.331977
-3.664991	should	-0.3808422
-4.209059	should've	-0.3794841
-3.908029	shouldn't	-0.3916363
-3.731938	show	-0.3855713
-4.510089	shower	-0.3255968
-4.209059	shows	-0.3790813
-3.664991	shut	-0.7575235
-4.032968	sick	-0.3581767
-4.209059	sign	-0.3262771
-4.209059	silver	-0.3315071
-4.209059	sim	-0.3319099
-3.908029	since	-0.3347231
-4.209059	single	-0.3795512
-3.032968	sir	-0.477289
-4.510089	sit	-0.3318294
-4.209059	sitting	-0.3313593
-3.555846	six	-0.4762775
-4.510089	sixteen	-0.3319368
-4.209059	slept	-0.3782746
-3.908029	small	-0.3549449
-4.209059	snap	-0.2935158
-4.510089	sneaking	-0.3314937
-2.601604	so	-0.3528239
-4.510089	social	-0.3319502
-4.510089	sockets	-0.2944531
-4.209059	socks	-0.3794976
-4.209059	sold	-0.3225083
-3.078725	some	-0.3440312
-4.032968	somebody	-0.3317354
-4.510089	somebody'cause	-0.3252835
-4.032968	somehow	-0.3613949
-4.032968	someone	-0.3217534
-3.209059	something	-0.3774231
-4.510089	sometime	-0.2944531
-4.209059	sometimes	-0.3254061
-3.430908	somewhere	-0.4631446
-4.209059	son	-0.2943068
-4.209059	soon	-0.3791485
-4.510089	sooner	-0.3316951
-3.032968	sorry	-0.4279149
-3.908029	sort	-0.3907761
-4.510089	soup	-0.2944531
-4.510089	spart	-0.3319502
-4.510089	spawning	-0.3316951
-4.209059	speak	-0.3310501
-4.510089	speaking	-0.3311443
-4.510089	spine	-0.2944531
-4.510089	splendid	-0.3315877
-4.510089	sponge	-0.331977
-4.032968	spot	-0.3261819
-4.510089	spotlight	-0.3312787
-4.510089	squeakers	-0.3286634
-4.209059	stand	-0.3782611
-3.510089	standing	-0.3901658
-3.811119	start	-0.2898349
-3.811119	started	-0.3761643
-4.510089	starve	-0.3315071
-3.430908	stay	-0.421329
-4.510089	stays	-0.3313324
-4.510089	steal	-0.3296089
-4.510089	steps	-0.3316683
-4.510089	sticking	-0.3314937
-4.209059	stiff	-0.2936917
-3.555846	still	-0.3498482
-4.209059	sting	-0.3420407
-4.510089	stole	-0.3296089
-3.908029	stop	-0.3512781
-4.209059	strangers	-0.3787319
-4.032968	strong	-0.3611928
-4.510089	stronger	-0.3319368
-4.510089	strumpets	-0.3319502
-4.510089	stuck	-0.3255968
-3.731938	stuff	-0.3020836
-3.908029	stupid	-0.3463906
-4.510089	style	-0.3316146
-4.032968	such	-0.3601672
-4.032968	sucker	-0.3591392
-4.032968	sudden	-0.3555493
-4.209059	suddenly	-0.3314802
-4.510089	suffer	-0.3310233
-4.510089	suffered	-0.3311443
-4.510089	suicide	-0.331977
-4.510089	suitcase	-0.2944531
-3.664991	supervisor	-0.2859287
-4.209059	suppose	-0.3278243
-3.811119	supposed	-0.7208346
-3.664991	sure	-0.3131212
-4.510089	surprise	-0.2944531
-4.032968	survive	-0.3290148
-4.209059	swallows	-0.3276346
-4.510089	swear	-0.3283659
-3.908029	sweet	-0.3612256
-3.908029	swim	-0.2912816
-3.731938	swimming	-0.3868879
-4.209059	swine	-0.3794707
-4.510089	symptoms	-0.331977
-4.209059	system	-0.3308887
-4.510089	systems	-0.3306869
-4.209059	tags	-0.3788663
-3.468696	take	-0.3494186
-4.209059	takes	-0.3769266
-4.510089	taking	-0.3255968
-4.510089	talent	-0.3306735
-4.510089	talented	-0.2944531
-3.510089	talk	-1.074626
-4.510089	talked	-0.3313996
-4.510089	talking	-0.3313996
-4.510089	tarzan	-0.2944531
-4.510089	taste	-0.2944531
-3.112149	tell	-0.589734
-4.510089	temperamental	-0.3319502
-4.510089	tempered	-0.3319636
-4.510089	temporary	-0.3316817
-4.032968	ten	-0.3628877
-4.209059	terrible	-0.3795512
-3.908029	than	-0.3269021
-3.606999	thank	-0.5424215
-4.032968	thanks	-0.2800404
-2.292605	that	-0.4240143
-4.510089	that'll	-0.3310502
-2.897305	that's	-0.3447235
-2.155981	the	-0.355013
-4.510089	theatre	-0.3309022
-3.908029	their	-0.3316683
-3.18787	them	-0.3212179
-3.908029	themselves	-0.3502887
-2.953787	then	-0.3266646
-2.966021	there	-0.4495128
-3.27964	there's	-0.3551792
-4.510089	therefore	-0.2944531
-3.664991	these	-0.3682733
-2.703909	they	-0.4891995
-4.209059	they'd	-0.3794573
-4.209059	they'll	-0.3795512
-3.908029	they're	-0.353358
-3.148361	thing	-0.3055719
-3.468696	things	-0.2952937
-3.018727	think	-0.3440872
-3.606999	thinking	-0.370203
-2.510089	this	-0.4749881
-3.811119	those	-0.3690569
-4.032968	though	-0.3241099
-3.430908	thought	-0.3436738
-4.510089	thousand	-0.3319636
-4.032968	thousands	-0.3581767
-4.209059	thrash	-0.3771966
-3.468696	three	-0.3533361
-3.664991	through	-0.3520665
-4.510089	throw	-0.3319368
-4.209059	throws	-0.3769266
-4.209059	ticket	-0.2937796
-4.510089	tickets	-0.3283659
-4.510089	till	-0.3315071
-3.209059	time	-0.2798535
-4.510089	time's	-0.329339
-4.209059	times	-0.3248472
-4.209059	tired	-0.3779649
-2.080337	to	-0.5516078
-4.209059	today	-0.2908244
-4.510089	toes	-0.3286634
-4.209059	together	-0.325079
-4.209059	told	-0.3314668
-4.032968	tomorrow	-0.3237135
-3.811119	tonight	-0.3073462
-3.510089	too	-0.3207588
-3.731938	took	-0.3588006
-4.209059	top	-0.3303234
-4.510089	topic	-0.3305793
-4.209059	torment	-0.3420407
-4.510089	torture	-0.3305389
-4.209059	toss	-0.3773584
-4.510089	tots	-0.2944531
-4.209059	tough	-0.3795512
-4.209059	trade	-0.3782342
-4.510089	travel	-0.3319636
-4.510089	tried	-0.3286634
-4.510089	trip	-0.3306735
-4.510089	tripped	-0.3316951
-4.510089	trivial	-0.3315877
-4.209059	trouble	-0.3282847
-4.209059	true	-0.3420407
-4.510089	trumpets	-0.3286634
-4.032968	try	-0.4199522
-4.032968	trying	-0.4199522
-4.209059	tunis	-0.3420407
-3.555846	turn	-0.5003738
-3.731938	turned	-0.3294875
-4.510089	turning	-0.3312787
-3.908029	twenty	-0.3545017
-4.510089	twice	-0.3306735
-3.468696	two	-0.3619633
-4.510089	u	-0.331977
-4.510089	ugh	-0.3252835
-3.254817	uh	-0.2765169
-4.510089	uhh	-0.3252835
-3.254817	um	-0.3906952
-4.209059	umm	-0.3307542
-4.510089	under	-0.3289473
-3.555846	understand	-0.3215153
-4.510089	unexplainable	-0.2944531
-4.510089	unfair	-0.3306735
-4.209059	unmistakable	-0.3794841
-4.510089	until	-0.3312249
-2.941887	up	-0.4468023
-4.209059	urge	-0.3222202
-4.209059	urgency	-0.3790276
-4.510089	urn	-0.3306735
-3.27964	us	-0.3002027
-3.606999	use	-0.3220333
-4.510089	used	-0.3283659
-4.510089	utterly	-0.331977
-4.510089	uveny	-0.2944531
-4.510089	va	-0.3312787
-4.209059	vampire	-0.3762511
-4.510089	venice	-0.2944531
-4.209059	verify	-0.3318294
-4.510089	verizon	-0.3314265
-3.231335	very	-0.3750039
-4.510089	vessel	-0.331977
-4.510089	viacom	-0.331977
-4.209059	vibrations	-0.3782746
-3.908029	view	-0.3712328
-4.032968	vile	-0.3309425
-4.510089	violently	-0.3318965
-4.510089	vote	-0.3311308
-3.430908	wait	-0.3493307
-4.032968	waited	-0.2938675
-3.664991	waiting	-0.3587182
-3.811119	walk	-0.3792121
-4.510089	wallet	-0.3252835
-2.794086	want	-0.6055009
-3.510089	wanted	-1.073568
-4.510089	wants	-0.3283659
-4.032968	war	-0.3246693
-2.652756	was	-0.3486691
-4.510089	wasn't	-0.3296089
-4.510089	wasting	-0.3316951
-4.032968	watch	-0.3615431
-4.032968	watching	-0.3598023
-3.908029	water	-0.3598775
-3.396146	way	-0.3245469
-4.510089	ways	-0.2944531
-2.591011	we	-0.4818039
-4.032968	we'd	-0.3304446
-3.731938	we'll	-0.361745
-3.167666	we're	-0.3812456
-3.908029	we've	-0.331104
-4.510089	weak	-0.3319636
-4.510089	wedding	-0.3286634
-4.510089	weddings	-0.3315206
-4.209059	week	-0.3294739
-4.209059	weeks	-0.3420407
-4.032968	weird	-0.3527411
-4.510089	weird'cause	-0.3308753
-4.510089	welcome	-0.3283659
-2.67124	well	-0.4090421
-3.555846	went	-0.3662605
-3.468696	were	-0.3453304
-4.209059	weren't	-0.3781804
-2.4889	what	-0.5869418
-4.510089	what'd	-0.3255968
-3.510089	what's	-0.38764
-4.209059	whatever	-0.2943946
-4.032968	whatever(	-0.2860629
-3.305969	when	-0.3668858
-3.27964	where	-0.3261889
-4.032968	where's	-0.3621352
-4.032968	while	-0.3216387
-4.510089	whispered	-0.3309022
-3.811119	who	-0.3299461
-3.510089	whole	-0.3816223
-4.510089	whose	-0.331977
-3.018727	why	-0.3531184
-4.510089	why'd	-0.3255968
-4.209059	wicked	-0.3314802
-4.209059	wife	-0.3728711
-4.510089	wiggle	-0.3309022
-3.209059	will	-0.2982786
-4.510089	win	-0.3255968
-4.510089	wind	-0.3306869
-2.710748	with	-0.483744
-4.510089	woman	-0.3317354
-4.209059	woman's	-0.3795244
-4.510089	women	-0.3255968
-3.731938	won't	-0.3487927
-4.209059	wonder	-0.3789604
-4.510089	wonderful	-0.331977
-4.209059	wondering	-0.3789604
-4.209059	words	-0.3420407
-3.555846	work	-0.3486956
-4.510089	worked	-0.3306735
-4.510089	working	-0.3286634
-4.510089	world	-0.2944531
-4.510089	worms	-0.331977
-3.811119	worst	-0.3255151
-4.032968	worth	-0.4219636
-3.032968	would	-0.47118
-4.209059	would've	-0.3317354
-3.664991	wouldn't	-0.3517531
-3.731938	wow	-0.2986904
-4.032968	write	-0.3615161
-3.333998	wrong	-0.3197963
-4.510089	wrote	-0.3286634
-4.510089	yard	-0.3286634
-2.802519	yeah	-0.5487865
-3.510089	year	-0.3155162
-4.510089	year's	-0.3319368
-3.510089	years	-0.2987522
-4.510089	yell	-0.3314937
-3.032968	yes	-0.4104586
-3.908029	yet	-0.3093395
-3.908029	york	-0.3125187
-1.835228	you	-0.5799918
-3.908029	you'd	-0.3311712
-2.837991	you're	-0.5029357
-3.908029	you've	-0.3310367
-4.032968	young	-0.3220692
-2.88684	your	-0.3437176
-3.606999	yourself	-0.3304339
-4.209059	zipped	-0.3307676

\2-grams:
-0.2721306	'CAUSE YOU
-0.2796165	++BREATHING++ </s>
-1.313523	++BREATHING++ AND
-1.313523	++BREATHING++ GEEZ
-1.313523	++BREATHING++ SO
-1.313523	++BREATHING++ YOU
-0.632476	++GARBAGE++ </s>
-0.9711006	++GARBAGE++ MAN
-0.9711006	++GARBAGE++ SHE'S
-0.9711006	++GARBAGE++ YOU
-0.2671717	++LAUGHTER++ </s>
-1.840332	++LAUGHTER++ AND
-1.840332	++LAUGHTER++ DON'T
-1.840332	++LAUGHTER++ FOR
-1.840332	++LAUGHTER++ HE'S
-1.840332	++LAUGHTER++ HELLO
-1.840332	++LAUGHTER++ HOW
-1.840332	++LAUGHTER++ I
-1.840332	++LAUGHTER++ I'LL
-1.840332	++LAUGHTER++ I'M
-1.840332	++LAUGHTER++ NO
-1.501708	++LAUGHTER++ OH
-1.840332	++LAUGHTER++ SO
-1.840332	++LAUGHTER++ THAT
-1.840332	++LAUGHTER++ WE
-1.840332	++LAUGHTER++ WHY
-1.840332	++LAUGHTER++ YOU
-0.5731606	++breathing++ </s>
-0.5731606	++breathing++ so
-0.7492518	++garbage++ </s>
-0.7492518	++garbage++ man
-0.7492518	++garbage++ you
-0.6233088	++laughter++ </s>
-1.272131	++laughter++ hello
-1.272131	++laughter++ i'm
-1.272131	++laughter++ no
-1.272131	++laughter++ oh
-1.272131	++laughter++ so
-1.272131	++laughter++ you
-3.700265	<s> 'CAUSE
-2.386742	<s> ++BREATHING++	0.04975867
-3.700265	<s> ++GARBAGE++
-2.149381	<s> ++LAUGHTER++	0.2510978
-3.361641	<s> ++breathing++
-2.759792	<s> ++laughter++
-2.759792	<s> A
-2.428135	<s> ABOUT	-0.6513284
-3.700265	<s> ACTING
-3.361641	<s> ACTUALLY
-3.700265	<s> ADDERS
-3.361641	<s> AH
-3.361641	<s> AHH
-2.81993	<s> ALL	-0.4469662
-2.759792	<s> ALRIGHT
-3.361641	<s> AM	-0.1505698
-3.361641	<s> AMANDA	-0.09404962
-1.695741	<s> AND	-0.1154666
-3.700265	<s> ANN
-3.051444	<s> ANNIE	-0.07475412
-2.428135	<s> ARE	-0.7182376
-3.700265	<s> ARRIVING
-3.700265	<s> AS
-3.156575	<s> AT	-0.07589865
-2.759792	<s> AUGIE	-0.02602386
-3.156575	<s> AW
-3.700265	<s> AWESOME
-3.361641	<s> BABE
-3.700265	<s> BALTIMORE
-3.361641	<s> BEAST
-3.700265	<s> BEATING
-2.473892	<s> BECAUSE	0.04622117
-3.700265	<s> BEFORE
-3.700265	<s> BEHAVE
-3.700265	<s> BEING
-3.700265	<s> BELIEVE
-3.700265	<s> BUSINESS
-2.197686	<s> BUT	0.04493038
-3.700265	<s> BUY
-3.361641	<s> CALM
-2.759792	<s> CAN	-0.1499208
-3.700265	<s> CANNES
-3.361641	<s> CARLA	-0.0793516
-3.700265	<s> CARRY
-3.361641	<s> CAUSE
-3.361641	<s> CHRIS
-3.700265	<s> CHUCK
-3.700265	<s> CLEARLY
-3.156575	<s> COME	-0.1115423
-3.700265	<s> COULD
-3.700265	<s> COUPLE
-3.700265	<s> CRIED
-3.700265	<s> DANCING
-3.700265	<s> DARLING
-3.700265	<s> DETAILS
-2.348953	<s> DID	-0.8228976
-2.047924	<s> DO	-0.7023409
-2.314191	<s> DON'T	-0.06259993
-3.700265	<s> DRIVING
-3.700265	<s> DUDE
-3.361641	<s> EIGHT
-3.051444	<s> EVERY	0.02431943
-3.700265	<s> EVERYDAY
-3.700265	<s> EVERYTHING
-3.700265	<s> EXCUSE
-3.700265	<s> FAR
-3.700265	<s> FIFTEEN
-3.700265	<s> FIFTY
-3.156575	<s> FINE	-0.005119845
-3.700265	<s> FLASHLIGHT
-3.700265	<s> FLIGHT
-3.700265	<s> FLIPPANCY
-2.525045	<s> FOR	-0.1246855
-3.361641	<s> FOUR
-3.156575	<s> FROM	-0.07966848
-3.361641	<s> GEEZ	0.1637852
-3.700265	<s> GEORGIA
-2.666359	<s> GIVE	-0.03181282
-3.361641	<s> GO
-2.81993	<s> GOD
-3.700265	<s> GOES
-3.700265	<s> GOING
-3.361641	<s> GOSH
-3.700265	<s> HANGING
-3.700265	<s> HAS
-2.105916	<s> HE	-0.03120025
-2.81993	<s> HE'S	-0.04688828
-3.156575	<s> HELLO
-2.759792	<s> HEY	-0.01940088
-3.700265	<s> HIS
-3.700265	<s> HMM
-3.051444	<s> HONEY	0.01570462
-3.700265	<s> HOPE
-2.197686	<s> HOW	-0.1729822
-3.156575	<s> HOW'S	0.0647119
-3.700265	<s> HOWEVER
-3.156575	<s> HUH
-1.118505	<s> I	-0.0875268
-3.156575	<s> I'D	0.1917457
-2.386742	<s> I'LL	-0.01463287
-1.815351	<s> I'M	-0.01568753
-3.051444	<s> I'VE	0.07225828
-2.759792	<s> IF
-3.700265	<s> IN
-3.700265	<s> INCREDIBLE
-2.525045	<s> IS	-0.01774093
-3.700265	<s> ISN'T
-2.314191	<s> IT	-0.1208416
-1.815351	<s> IT'S	-0.0284998
-3.700265	<s> ITS
-3.361641	<s> JOE
-3.700265	<s> JOE'S
-2.314191	<s> JUST	-0.04628422
-3.700265	<s> KELLY
-3.700265	<s> KIND
-3.361641	<s> LAST
-3.700265	<s> LAUGH
-2.759792	<s> LET'S	-0.04215248
-2.386742	<s> LIKE	-0.03432714
-2.81993	<s> LISTEN
-3.700265	<s> LOCK
-2.085712	<s> LOOK	-0.02246472
-3.700265	<s> MAN
-2.759792	<s> MAYBE	-0.05408271
-3.361641	<s> MIND	-0.1845572
-3.700265	<s> MM
-2.666359	<s> MMHMM	0.4204849
-3.156575	<s> MMM
-3.700265	<s> MMMM
-3.700265	<s> MOST
-2.81993	<s> MY	-0.06141108
-3.700265	<s> NEXT
-1.595626	<s> NO	-0.1033311
-3.361641	<s> NOBODY	-0.06685396
-3.361641	<s> NONSENSE	-0.1136719
-2.428135	<s> NOT	-0.1588107
-3.361641	<s> NOTHING
-2.759792	<s> NOW	-0.04214164
-3.051444	<s> OF	-0.2645052
-1.469093	<s> OH	0.1081381
-1.871832	<s> OKAY	0.1101047
-3.700265	<s> OLIVIA
-2.81993	<s> ON	-0.02579566
-3.700265	<s> OOH
-3.700265	<s> OPEN
-2.666359	<s> OR	-0.519564
-3.361641	<s> OTHERWISE	0.1506505
-3.700265	<s> OUT
-3.361641	<s> PASS
-3.700265	<s> PENNY
-3.361641	<s> PEOPLE
-3.700265	<s> PINCH
-3.700265	<s> PLEASE
-3.361641	<s> PRESENTS
-3.361641	<s> PRETTY	-0.139083
-3.700265	<s> PROBABLY
-3.700265	<s> RATHER
-3.361641	<s> REALLY	-0.2073088
-3.700265	<s> REMEMBER
-2.759792	<s> RIGHT	-0.2512711
-3.700265	<s> SARA
-3.700265	<s> SCRATCHING
-3.156575	<s> SEE	-0.1238052
-3.700265	<s> SEEMED
-3.700265	<s> SHALL
-2.666359	<s> SHE	-0.0452519
-3.156575	<s> SHE'S
-3.700265	<s> SHERLOCK
-3.051444	<s> SHH	0.1506505
-2.759792	<s> SHUT	0.8814827
-2.666359	<s> SIR	-0.02706435
-3.700265	<s> SIT
-3.700265	<s> SIXTEEN
-3.700265	<s> SNAP
-2.127105	<s> SO	-0.002169147
-3.156575	<s> SOME
-3.700265	<s> SOMEWHERE
-3.700265	<s> SOON
-3.700265	<s> SORT
-3.361641	<s> STOP	0.07833581
-3.700265	<s> SUCH
-3.361641	<s> SURE
-3.361641	<s> TAKES
-3.051444	<s> TELL	0.02898985
-3.361641	<s> THANK	0.3353438
-3.700265	<s> THANKS
-2.428135	<s> THAT	-0.1001457
-2.047924	<s> THAT'S	0.02225845
-2.348953	<s> THE	-0.04589675
-2.525045	<s> THEN	-0.1053481
-3.700265	<s> THERE
-2.666359	<s> THERE'S
-2.127105	<s> THEY	0.02000855
-3.051444	<s> THINGS	-0.07161829
-2.197686	<s> THIS	-0.5011941
-3.700265	<s> THREE
-2.81993	<s> TO	-0.07595582
-3.700265	<s> TOP
-3.700265	<s> TOTALLY
-2.666359	<s> TURN	-0.2491737
-3.700265	<s> TURNED
-3.700265	<s> TWENTY
-3.361641	<s> TWICE	0.04450549
-3.700265	<s> TWO
-2.666359	<s> UH
-3.700265	<s> UHUH
-2.759792	<s> UM
-3.361641	<s> UMM
-3.700265	<s> UTTERLY
-2.81993	<s> VERY	-0.1117149
-2.525045	<s> WAIT	-0.02116873
-3.700265	<s> WAS
-2.066407	<s> WE	-0.03336152
-3.361641	<s> WE'LL
-2.666359	<s> WE'RE	0.04846948
-3.156575	<s> WE'VE	-0.02300189
-3.700265	<s> WELCOME
-1.51965	<s> WELL	0.07097942
-1.765377	<s> WHAT	-0.03814828
-2.759792	<s> WHAT'S
-3.361641	<s> WHERE
-3.700265	<s> WHICH
-2.81993	<s> WHO	-0.0409281
-3.361641	<s> WHO'S
-3.361641	<s> WHOSE
-2.105916	<s> WHY	-0.1010108
-3.700265	<s> WILL
-3.361641	<s> WITH	-0.2237847
-3.700265	<s> WOULD
-3.700265	<s> WOULDN'T
-3.361641	<s> WOW
-1.530508	<s> YEAH	0.01960209
-1.922985	<s> YES	0.1806981
-1.464347	<s> YOU	-0.1090491
-3.361641	<s> YOU'D
-3.700265	<s> YOU'LL
-2.030195	<s> YOU'RE	-0.1012698
-3.051444	<s> YOU'VE	0.09186739
-3.700265	<s> YOUR
-3.051444	<s> a
-2.759792	<s> about	-0.3273584
-3.700265	<s> acting
-3.361641	<s> actually
-3.700265	<s> adders
-3.156575	<s> all	-0.1847329
-2.759792	<s> alright
-1.896656	<s> and	-0.1428677
-3.051444	<s> annie	-0.05875944
-2.81993	<s> are	-0.1527756
-3.700265	<s> as
-3.361641	<s> at
-3.156575	<s> augie
-3.700265	<s> awesome
-3.361641	<s> babe
-3.700265	<s> baltimore
-3.361641	<s> beast
-3.156575	<s> because
-3.700265	<s> behave
-3.700265	<s> being
-2.348953	<s> but	0.02227056
-3.700265	<s> buy
-3.361641	<s> calm
-3.051444	<s> can	-0.155213
-3.700265	<s> carla
-3.700265	<s> carry
-3.361641	<s> cause
-3.700265	<s> chuck
-3.700265	<s> come
-3.700265	<s> could
-3.700265	<s> dancing
-2.759792	<s> did	0.03921387
-2.666359	<s> do	-0.05486737
-2.81993	<s> don't
-3.361641	<s> eight
-3.156575	<s> every	0.04196946
-3.700265	<s> everything
-3.700265	<s> far
-3.700265	<s> fifteen
-3.700265	<s> fine
-3.156575	<s> for	-0.1333497
-3.700265	<s> from
-3.361641	<s> geez	0.1506505
-2.81993	<s> give	0.02978954
-3.361641	<s> go
-3.361641	<s> god
-3.700265	<s> goes
-3.700265	<s> going
-3.700265	<s> hanging
-2.314191	<s> he	-0.1070128
-3.361641	<s> he's
-3.156575	<s> hello
-2.81993	<s> hey	-0.02391589
-3.700265	<s> his
-3.156575	<s> honey
-3.700265	<s> hope
-2.525045	<s> how	-0.1004728
-3.361641	<s> how's	0.1946491
-3.361641	<s> huh
-1.428135	<s> i	-0.04589486
-3.700265	<s> i'd
-2.759792	<s> i'll	0.001036212
-2.047924	<s> i'm	0.1314496
-3.156575	<s> i've	0.07491224
-3.361641	<s> if
-3.700265	<s> in
-2.81993	<s> is	-0.03589544
-3.700265	<s> isn't
-2.666359	<s> it	-0.05304613
-2.047924	<s> it's	0.02256167
-3.700265	<s> its
-3.361641	<s> joe
-3.700265	<s> joe's
-2.666359	<s> just	-0.102977
-3.700265	<s> kelly
-3.700265	<s> kind
-3.700265	<s> laugh
-3.156575	<s> let's
-2.759792	<s> like	-0.01193964
-3.156575	<s> listen
-2.252043	<s> look	0.05723225
-3.700265	<s> man
-3.361641	<s> maybe
-3.700265	<s> mind
-3.361641	<s> mmm
-3.700265	<s> mmmm
-3.700265	<s> most
-3.156575	<s> my	-0.1133577
-1.848351	<s> no	0.06985077
-3.700265	<s> nobody
-2.81993	<s> not	-0.07064414
-3.361641	<s> nothing
-2.81993	<s> now
-3.700265	<s> of
-1.815351	<s> oh	0.05970952
-1.936773	<s> okay	0.1412191
-3.700265	<s> olivia
-3.361641	<s> on
-3.700265	<s> ooh
-3.700265	<s> open
-3.156575	<s> or	-0.2158161
-3.361641	<s> otherwise	0.1506505
-3.700265	<s> pass
-3.700265	<s> please
-3.700265	<s> presents
-3.700265	<s> rather
-3.700265	<s> really
-3.700265	<s> remember
-3.361641	<s> right	-0.1224723
-3.700265	<s> sara
-3.700265	<s> see
-3.700265	<s> seemed
-3.156575	<s> she
-3.156575	<s> she's
-3.700265	<s> sherlock
-3.361641	<s> shh
-3.361641	<s> shut	0.5290927
-2.666359	<s> sir	-0.02613469
-3.700265	<s> sixteen
-2.348953	<s> so	0.00142386
-3.361641	<s> some
-3.700265	<s> somewhere
-3.700265	<s> soon
-3.700265	<s> stop
-3.700265	<s> such
-3.700265	<s> sure
-3.700265	<s> takes
-3.051444	<s> tell	0.07768089
-3.700265	<s> thank
-3.700265	<s> thanks
-2.81993	<s> that
-2.81993	<s> that's
-3.051444	<s> the
-3.156575	<s> then	-0.07834838
-3.700265	<s> there's
-2.473892	<s> they
-3.361641	<s> things
-2.525045	<s> this	-0.292438
-3.700265	<s> three
-3.700265	<s> to
-3.700265	<s> top
-3.156575	<s> turn	0.005883247
-3.700265	<s> turned
-3.700265	<s> twenty
-3.700265	<s> two
-3.051444	<s> uh
-2.81993	<s> um
-3.156575	<s> very	-0.09357998
-2.759792	<s> wait	-0.01940088
-2.314191	<s> we	-0.1065963
-3.700265	<s> we'll
-2.759792	<s> we're	-0.006477863
-3.700265	<s> welcome
-1.729165	<s> well	0.0424931
-2.047924	<s> what	0.002096683
-3.156575	<s> what's
-3.361641	<s> where
-3.361641	<s> who
-3.700265	<s> whose
-2.428135	<s> why	-0.05930331
-3.361641	<s> wow
-1.804886	<s> yeah	-0.001297295
-2.127105	<s> yes	0.1352566
-1.746894	<s> you	-0.131966
-3.361641	<s> you'd
-2.386742	<s> you're	0.03374124
-3.700265	<s> you've
-2.499354	A </s>
-2.837978	A A
-2.499354	A BACK	-0.2169942
-2.499354	A BAG	-0.1136719
-2.499354	A BENDED	0.1506505
-2.294288	A BIG
-2.837978	A BIT
-2.837978	A BLANKET
-2.837978	A BLOOD
-2.837978	A BOORISH
-2.499354	A BOTTLE	0.1506505
-2.499354	A BOY
-2.499354	A BRAND	0.1946491
-2.837978	A BRUISING
-2.499354	A BUNCH	0.1506505
-2.837978	A BUNKER
-2.837978	A BUS
-2.294288	A BUSINESS	-0.2232185
-2.837978	A CALL
-2.499354	A CALLING	-0.06685396
-1.41972	A CHILD	-0.1180993
-2.837978	A CO
-2.837978	A COMMUTE
-2.294288	A COMPANY	0.138344
-2.837978	A CONCEITED
-2.499354	A CONSIDERATE
-2.499354	A CONVERSATION
-2.837978	A COUPLE
-2.837978	A COURT
-2.189157	A CRACK	0.1177563
-2.837978	A CROWN
-2.294288	A CRUEL	0.01103054
-2.837978	A CURTSY
-2.294288	A DAY
-2.837978	A DECISION
-2.499354	A DEMAND
-2.294288	A DIFFERENCE	0.169208
-2.837978	A DIRECT
-2.837978	A DUAL
-2.837978	A FAKE
-2.294288	A FAMILY	-0.05111143
-2.837978	A FISH
-2.189157	A FIT	0.01570462
-1.804072	A FORTUNE	0.06297725
-1.957643	A FREE
-2.499354	A FULL	-0.1136719
-2.837978	A GARDEN
-2.837978	A GIANT
-2.837978	A GIFT
-2.837978	A GOD
-1.486667	A GOOD	-0.01381103
-2.499354	A GREAT
-2.499354	A HABIT	0.1506505
-2.294288	A HALF	-0.05111143
-2.294288	A HOLE	0.07504646
-2.837978	A HOLIDAY
-2.837978	A HONEYMOON
-2.499354	A HUNDRED
-2.837978	A IS
-2.499354	A JOB
-2.499354	A JOKE	0.1506505
-2.294288	A KID
-2.189157	A KIND	1.269112
-2.294288	A KISS
-2.294288	A LAND	0.169208
-2.499354	A LAW
-2.837978	A LAWSUIT
-2.837978	A LETTER
-2.837978	A LINE
-1.009545	A LITTLE	-0.05874449
-2.189157	A LONG	-0.1502083
-2.837978	A LOSER
-1.389757	A LOT	0.135798
-2.837978	A LUCKY
-1.897505	A MAN	-0.08088871
-2.294288	A MAP	0.07504646
-2.837978	A MASSIVE
-2.499354	A MATTER	-0.1667038
-2.837978	A MEAN
-2.837978	A MESS
-2.837978	A MICROPHONE
-1.804072	A MINUTE	-0.03269628
-2.837978	A MISTAKE
-2.837978	A MOMENT
-2.837978	A MONTH
-2.837978	A MUCH
-2.499354	A NAME
-2.499354	A NATURAL	0.1506505
-1.804072	A NEW	-0.02513869
-2.189157	A NICE	-0.02046034
-2.499354	A NIGHT
-2.837978	A ONE
-2.837978	A PARENT
-2.837978	A PARK
-2.499354	A PARTY
-2.837978	A PER
-2.837978	A PERSON
-2.837978	A PERSONAL
-2.837978	A PHONE
-2.837978	A PHOTOGRAPHER'S
-2.837978	A PIECE
-2.499354	A PITY	-0.0793516
-2.837978	A POODLE
-2.189157	A PRETTY	-0.08568156
-2.499354	A PROBLEM
-1.957643	A QUESTION	0.0689698
-2.499354	A RAT
-2.837978	A REALTOR
-2.837978	A REFUND
-2.837978	A REGULAR
-2.837978	A REIMBURSEMENT
-2.189157	A RIOTOUS	0.09790689
-2.294288	A ROCK
-2.499354	A ROUSER	0.1506505
-2.837978	A SECOND
-2.837978	A SHE
-2.837978	A SHORT
-2.294288	A SHOWER	0.07504646
-1.611605	A SIX	-0.49485
-2.837978	A SORE
-2.499354	A SPLENDID	0.1506505
-2.837978	A SPOTLIGHT
-2.499354	A SUCKER	-0.01533568
-2.189157	A SUDDEN	0.05002491
-2.499354	A SUICIDE	0.1506505
-2.499354	A SUPERVISOR
-2.837978	A SWEET
-2.499354	A TALENT	0.1506505
-2.837978	A TEMPORARY
-2.499354	A TERRIBLE	0.1506505
-2.837978	A THING
-2.837978	A TRIP
-2.499354	A TRIVIAL	0.1506505
-2.837978	A VERY
-2.189157	A VILE	0.02773115
-2.837978	A VOTE
-2.837978	A WAITING
-2.837978	A WAR
-2.499354	A WASTING	0.1946491
-2.499354	A WE
-2.294288	A WEAK	0.169208
-2.837978	A WEDDING
-2.294288	A WEEK	-0.09229514
-2.837978	A WHILE
-2.294288	A WHOLE	-0.2067633
-2.499354	A WIFE	0.1506505
-2.294288	A WOMAN'S	0.01103054
-2.837978	A WORD
-1.957643	A YEAR	-0.01959256
-0.2721306	ABLE TO
-1.819997	ABOUT </s>
-1.5098	ABOUT A	-0.08270653
-1.5098	ABOUT ALL	-0.03710479
-2.158621	ABOUT BEING
-2.158621	ABOUT FISH
-1.614931	ABOUT FOUR
-2.158621	ABOUT GETTING
-2.158621	ABOUT HER
-2.158621	ABOUT HIM
-0.8073095	ABOUT IT	-0.1152573
-2.158621	ABOUT LARRY
-1.5098	ABOUT LIKE	-0.09530327
-1.5098	ABOUT ME	-0.1739849
-1.5098	ABOUT NOW	-0.08909669
-2.158621	ABOUT SEVEN
-2.158621	ABOUT TEN
-1.5098	ABOUT THAT	-0.008517012
-1.218148	ABOUT THE	-0.05865683
-0.8864907	ABOUT THIS	-0.05501671
-2.158621	ABOUT THREE
-0.9834008	ABOUT WHAT	-0.1860154
-1.614931	ABOUT YOU	-0.2243365
-0.05115252	ABOVE ALL	-0.1107619
-0.5731606	ABSOLUTELY </s>
-0.5731606	ABSOLUTELY ABSOLUTELY
-0.2721306	ACCEPTANCE LETTER
-0.4014601	ACCIDENT </s>
-1.050282	ACCIDENT TO
-1.050282	ACCIDENT YOU
-0.2721306	ACCOUNT DRIVE
-0.2721306	ACID IN
-0.2055615	ACT LIKE	-0.1292704
-0.2721306	ACTED AND
-0.7492518	ACTING JUST
-0.7492518	ACTING KIND
-0.7492518	ACTING PANTS
-1.313523	ACTUALLY </s>
-1.313523	ACTUALLY ASKED
-1.313523	ACTUALLY HE'S
-0.9748987	ACTUALLY I	-0.2250629
-1.313523	ACTUALLY IT
-1.313523	ACTUALLY LEFT
-0.9748987	ACTUALLY NOW	-0.2120401
-1.313523	ACTUALLY THAT'S
-1.313523	ACTUALLY THEY
-0.2721306	ACTUALLY'CAUSE YOU
-0.234536	ADDER </s>
-0.2721306	ADDERS DON'T
-0.2721306	ADDRESS AND
-0.2721306	ADDRESSED FAX
-0.2721306	ADMIT HE
-0.2721306	ADVISING YOU
-0.2721306	AFFORD TO
-0.2721306	AFRAID YOU'D
-0.7994001	AFTER ALL	-0.2125102
-1.109597	AFTER HE	-0.2237847
-1.109597	AFTER IT	-0.2264154
-1.448222	AFTER IT'S
-0.9045315	AFTER OUR	-0.213892
-1.448222	AFTER TIME
-1.109597	AFTER WE	-0.1983308
-0.5081555	AGAIN </s>
-1.190838	AGAIN AND	-0.06062121
-1.085707	AGAIN AS	-0.1983224
-1.734529	AGAIN CHRIS
-1.734529	AGAIN HA
-1.734529	AGAIN I
-1.085707	AGAIN IF	-0.1267304
-1.734529	AGAIN LIKE
-1.734529	AGAIN NEVER
-1.734529	AGAIN PLEASE
